/*
 * Copyright (c) 2026 EdgeImpulse Inc.
 *
 * Generated by Edge Impulse and licensed under the applicable Edge Impulse
 * Terms of Service. Community and Professional Terms of Service
 * (https://edgeimpulse.com/legal/terms-of-service) or Enterprise Terms of
 * Service (https://edgeimpulse.com/legal/enterprise-terms-of-service),
 * according to your product plan subscription (the “License”).
 *
 * This software, documentation and other associated files (collectively referred
 * to as the “Software”) is a single SDK variation generated by the Edge Impulse
 * platform and requires an active paid Edge Impulse subscription to use this
 * Software for any purpose.
 *
 * You may NOT use this Software unless you have an active Edge Impulse subscription
 * that meets the eligibility requirements for the applicable License, subject to
 * your full and continued compliance with the terms and conditions of the License,
 * including without limitation any usage restrictions under the applicable License.
 *
 * If you do not have an active Edge Impulse product plan subscription, or if use
 * of this Software exceeds the usage limitations of your Edge Impulse product plan
 * subscription, you are not permitted to use this Software and must immediately
 * delete and erase all copies of this Software within your control or possession.
 * Edge Impulse reserves all rights and remedies available to enforce its rights.
 *
 * Unless required by applicable law or agreed to in writing, the Software is
 * distributed on an "AS IS" BASIS, WITHOUT WARRANTIES OR CONDITIONS OF ANY KIND,
 * either express or implied. See the License for the specific language governing
 * permissions, disclaimers and limitations under the License.
 */
// Generated on: 15.02.2026 01:06:15

#include <stdio.h>
#include <stdlib.h>
#include "edge-impulse-sdk/tensorflow/lite/c/builtin_op_data.h"
#include "edge-impulse-sdk/tensorflow/lite/c/common.h"
#include "edge-impulse-sdk/tensorflow/lite/micro/micro_mutable_op_resolver.h"
#include "edge-impulse-sdk/porting/ei_classifier_porting.h"

#if EI_CLASSIFIER_PRINT_STATE
#if defined(__cplusplus) && EI_C_LINKAGE == 1
extern "C" {
    extern void ei_printf(const char *format, ...);
}
#else
extern void ei_printf(const char *format, ...);
#endif
#endif

#define STRINGIZE(x) #x
#define STRINGIZE_VALUE_OF(x) STRINGIZE(x)

#if defined (__GNUC__)  /* GNU compiler */
#define ALIGN(X) __attribute__((aligned(X)))
#define DEFINE_SECTION(x) __attribute__((section(x)))
#elif defined (_MSC_VER)
#define ALIGN(X) __declspec(align(X))
#elif defined (__TASKING__) /* TASKING Compiler */
#define ALIGN(X) __align(X)
#define DEFINE_SECTION(x) __attribute__((section(x)))
#elif defined (__ARMCC_VERSION) /* Arm Compiler */
#define ALIGN(X) __ALIGNED(x)
#define DEFINE_SECTION(x) __attribute__((section(x)))
#elif defined (__ICCARM__) /* IAR Compiler */
#define ALIGN(x) __attribute__((aligned(x)))
#define DEFINE_SECTION(x) __attribute__((section(x)))
#elif defined (__clang__) /* LLVM/Clang Compiler */
#define ALIGN(X) __ALIGNED(x)
#define DEFINE_SECTION(x) __attribute__((section(x)))
#endif

#if defined(EI_MODEL_SECTION) && (defined(__GNUC__) || defined(__clang__))
#define MODEL_SECTION(X) __attribute__((section(STRINGIZE_VALUE_OF(X))))
#else
#define MODEL_SECTION(X)
#endif

#ifndef EI_MAX_SCRATCH_BUFFER_COUNT
#ifndef CONFIG_IDF_TARGET_ESP32S3
#define EI_MAX_SCRATCH_BUFFER_COUNT 4
#else
#define EI_MAX_SCRATCH_BUFFER_COUNT 8
#endif // CONFIG_IDF_TARGET_ESP32S3
#endif // EI_MAX_SCRATCH_BUFFER_COUNT

#ifndef EI_MAX_OVERFLOW_BUFFER_COUNT
#define EI_MAX_OVERFLOW_BUFFER_COUNT 10
#endif // EI_MAX_OVERFLOW_BUFFER_COUNT

using namespace tflite;
using namespace tflite::ops;
using namespace tflite::ops::micro;

namespace {

#if defined(EI_CLASSIFIER_ALLOCATION_STATIC_HIMAX) || defined(EI_CLASSIFIER_ALLOCATION_STATIC_HIMAX_GNU)
constexpr int kTensorArenaSize = 186832;
#else
constexpr int kTensorArenaSize = 185808;
#endif

#if defined(EI_CLASSIFIER_ALLOCATION_STATIC)
#if defined (EI_TENSOR_ARENA_LOCATION)
uint8_t tensor_arena[kTensorArenaSize] ALIGN(16) DEFINE_SECTION(STRINGIZE_VALUE_OF(EI_TENSOR_ARENA_LOCATION));
#else
uint8_t tensor_arena[kTensorArenaSize] ALIGN(16);
#endif
#elif defined(EI_CLASSIFIER_ALLOCATION_STATIC_HIMAX)
#pragma Bss(".tensor_arena")
uint8_t tensor_arena[kTensorArenaSize] ALIGN(16);
#pragma Bss()
#elif defined(EI_CLASSIFIER_ALLOCATION_STATIC_HIMAX_GNU)
uint8_t tensor_arena[kTensorArenaSize] ALIGN(16) __attribute__((section(".tensor_arena")));
#else
#define EI_CLASSIFIER_ALLOCATION_HEAP 1
uint8_t* tensor_arena = NULL;
#endif

static uint8_t* tensor_boundary;
static uint8_t* current_location;

template <int SZ, class T> struct TfArray {
  int sz; T elem[SZ];
};

enum used_operators_e {
  OP_CONV_2D, OP_MAX_POOL_2D, OP_RESHAPE, OP_FULLY_CONNECTED, OP_SOFTMAX,  OP_LAST
};

struct TensorInfo_t { // subset of TfLiteTensor used for initialization from constant memory
  TfLiteAllocationType allocation_type;
  TfLiteType type;
  void* data;
  TfLiteIntArray* dims;
  size_t bytes;
  TfLiteQuantization quantization;
};

typedef struct {
  TfLiteTensor tensor;
  int16_t index;
} TfLiteTensorWithIndex;

typedef struct {
  TfLiteEvalTensor tensor;
  int16_t index;
} TfLiteEvalTensorWithIndex;

TfLiteContext ctx{};
static const int MAX_TFL_TENSOR_COUNT = 4;
static TfLiteTensorWithIndex tflTensors[MAX_TFL_TENSOR_COUNT];
static const int MAX_TFL_EVAL_COUNT = 4;
static TfLiteEvalTensorWithIndex tflEvalTensors[MAX_TFL_EVAL_COUNT];
TfLiteRegistration registrations[OP_LAST];

namespace g0 {
const TfArray<4, int> tensor_dimension0 = { 4, { 1,96,96,3 } };
const TfArray<1, float> quant0_scale = { 1, { 0.0039215688593685627, } };
const TfArray<1, int> quant0_zero = { 1, { -128 } };
const TfLiteAffineQuantization quant0 = { (TfLiteFloatArray*)&quant0_scale, (TfLiteIntArray*)&quant0_zero, 0 };
const MODEL_SECTION(EI_MODEL_SECTION) ALIGN(8) int32_t tensor_data1[2] = { -1, 18432, };
const TfArray<1, int> tensor_dimension1 = { 1, { 2 } };
const MODEL_SECTION(EI_MODEL_SECTION) ALIGN(8) int32_t tensor_data2[3] = { 1195, -126, -1623, };
const TfArray<1, int> tensor_dimension2 = { 1, { 3 } };
const TfArray<1, float> quant2_scale = { 1, { 1.3112834267303697e-06, } };
const TfArray<1, int> quant2_zero = { 1, { 0 } };
const TfLiteAffineQuantization quant2 = { (TfLiteFloatArray*)&quant2_scale, (TfLiteIntArray*)&quant2_zero, 0 };
const MODEL_SECTION(EI_MODEL_SECTION) ALIGN(16) int8_t tensor_data3[3*18432] = { 
  38, 21, 56, -39, -22, 34, 63, -50, -60, 54, 39, -15, 40, -48, 16, 22, -15, -62, -26, 15, -31, 75, 34, 21, -36, -45, 33, -36, -72, -70, 25, -53, 2, 8, -52, -27, 33, -58, -43, 41, -43, -27, 45, 21, 24, -11, 54, -26, 17, 16, -70, -41, 1, -40, 16, 25, 13, -52, 54, -56, 5, 3, -13, -42, 32, 22, -20, 64, -40, 55, 27, -45, -49, 32, -50, 42, -61, 17, 31, 57, -5, -60, 19, -5, 64, -21, 23, 3, -31, 69, -5, -7, 15, 36, 46, -52, -3, -4, 27, 43, -33, 68, 2, 32, 38, -45, 10, -3, 14, 64, -13, 23, 31, 81, -42, -49, 37, 6, -83, 27, 61, -22, 17, -31, -64, -3, 54, -42, 52, -27, -34, 54, 61, -46, 16, -10, 59, -62, 47, 22, -20, 40, 12, -42, 3, 56, -69, 21, 66, 4, 33, -21, 2, -59, 9, -2, 50, -60, 43, -12, 58, -35, -37, 53, -8, 29, 39, 8, 2, 13, 3, 29, 47, 11, 64, 7, -38, -11, 71, 46, 54, -41, -12, 5, 5, 64, 14, 8, -29, 16, 36, -23, 52, 66, -16, 32, 31, 11, 47, 67, -8, 61, 44, -4, 70, -33, 44, 42, 4, -47, -19, 64, 64, -36, -52, 6, 79, 22, 11, 2, 20, -2, 24, 19, -71, 15, 26, 55, 25, 8, 55, -18, 52, 40, -20, 22, 0, 47, -37, 13, 4, 51, -51, 0, 67, -47, -32, 56, -10, -3, -23, 61, 88, 64, -16, 19, 6, -5, 54, 73, -43, -42, 31, 19, -64, 24, 52, 53, 44, 5, 23, 51, -24, -26, 12, 5, 4, -60, 61, -40, -27, -37, -33, -51, 51, 47, -50, 35, -51, 13, 41, -26, -54, -40, 19, 54, 21, -56, -8, 14, 18, 85, 51, 39, -41, -26, 17, 28, -47, 56, -27, 39, -20, 60, -15, -50, -3, 37, -9, -13, 85, -55, 62, 54, 36, 58, -17, 72, 21, -40, 8, -36, 38, 27, 18, 3, -48, 42, -83, 61, -30, -6, 0, 40, 50, -24, -8, 40, 12, -10, 34, -39, -12, -14, -40, -32, 44, -19, 2, 60, 7, -10, 18, 43, -27, -30, 4, 77, -21, 34, -4, 33, 71, 82, -41, 31, 21, 35, -31, 70, -92, 1, -20, 11, -22, 9, 18, 43, -53, -19, 6, -13, 14, 15, -2, -1, -6, 10, -18, 47, 57, 15, -105, -33, 31, -38, -83, 49, 14, 14, -44, -46, -25, -27, 23, 45, 64, 19, 16, 3, -40, 80, 23, 61, -41, 73, 67, -38, -40, -1, 96, 58, 25, -3, -95, -16, 69, -2, -7, 66, 54, 50, -22, -38, -9, -34, -21, -28, -15, 16, 9, 9, 40, -8, -27, -19, -54, 58, 8, -10, -62, 25, 4, 49, 72, -10, 8, 1, 14, 20, 13, 2, -20, 10, 87, -19, 27, 20, 54, 54, 52, 66, -19, -15, -51, -30, 4, -20, -49, -35, 47, 61, -49, 74, -43, -1, -19, -10, -82, 41, 68, -17, 16, 23, -38, -26, 59, -23, -3, 35, 35, -15, -43, 33, 38, 16, -3, 45, -8, 36, 9, -54, 34, 28, 13, 6, 17, 31, 29, 65, -40, -10, 67, -19, 30, 59, -38, 1, -47, -4, -46, 22, 33, 9, -11, 18, 33, 64, -19, 29, -35, 34, -14, 30, -36, 36, -43, 44, -1, 3, -41, 60, -54, -14, 3, 8, 50, 50, 14, -14, -8, -21, 67, 28, -31, 37, 14, -40, -39, 63, 38, 26, 61, 65, 31, 28, 20, 49, 56, -56, 19, 9, -5, 40, -9, -49, -30, 14, -23, -35, 57, -22, -10, -24, -42, -45, -14, 59, 50, 35, 23, 24, 5, 32, 85, -74, 37, 27, 26, 9, -11, 36, -42, 11, 70, 22, -59, 7, 34, -7, 87, 34, -44, 75, -2, -8, 42, 30, 42, 1, -7, -17, -31, 28, 38, 39, -17, 24, 56, -75, -13, 57, -15, -42, -77, 0, 14, 18, -50, -47, 35, -27, -63, -36, -21, -67, 26, 23, -23, -18, 16, 1, 73, 63, 14, 38, 12, -11, -43, -32, -32, 11, 50, -23, -2, -10, 28, -13, -56, -40, 6, 62, -7, -26, -77, -7, -2, 39, 67, -35, -4, -66, -32, -37, 46, 25, 68, -19, 8, 15, -21, -38, 31, -2, 16, -39, -49, -39, -2, -47, -34, -7, -57, 5, 24, -56, -82, 47, 45, -38, -36, -20, 7, -53, 41, -40, -3, -34, 52, -30, 8, -15, -39, -9, 63, 54, 59, -10, -59, 48, 28, -42, -26, 46, -3, -7, 5, 18, -10, 22, 8, 22, -38, 17, -9, -19, 15, 15, -40, -34, -27, 22, -55, 22, 30, -53, 9, -61, -45, -46, -39, -4, -3, 31, 33, -9, -1, -36, 10, 56, -31, 26, 2, -39, 29, -76, -51, -75, 8, -49, 35, 46, 20, -22, -33, 64, -44, -19, 17, 22, 39, -27, -28, 76, -31, 40, 24, -14, -46, 35, 23, 64, 11, 47, 63, -28, 61, -28, 2, -63, 10, 12, -18, 54, 19, -24, -32, -49, 38, 30, -19, -50, 48, -93, -46, -46, 66, 31, 42, 4, -35, -48, -22, -50, 22, -51, 18, 12, -54, -15, -31, -27, -61, -38, 46, 50, -53, 20, -32, 41, 0, 67, -44, 11, -47, -55, 30, -24, 17, 1, -19, -17, -61, 43, -4, 53, 36, 30, -49, 34, 53, -30, 1, 14, -55, 15, -44, 52, -42, -17, -49, 68, -43, 65, -9, 6, -32, -24, -63, 81, 25, 47, -53, -11, -49, 22, -41, 40, -1, -39, 63, -6, 60, -48, -7, 53, -43, -57, 58, -24, -37, 42, -16, -2, 48, 52, -34, 66, 18, 6, 50, 53, 60, 71, 56, -49, -32, -17, 25, 40, -38, -15, -10, -22, -5, 57, -42, 6, 27, 66, 41, 43, 40, 16, -39, 32, 28, -38, 39, 37, -21, 26, 55, 2, 22, -6, 74, 23, 46, 37, -52, -21, -44, 31, -54, -6, 65, 52, -62, 63, 19, -33, 22, 44, 4, 65, -20, 40, -21, 64, 66, 8, 55, 65, 31, 81, -5, -15, 51, -9, -61, 14, 28, -39, -50, 13, 38, 46, -13, 23, 28, 24, -54, 60, 69, -1, -16, -40, 7, 80, -48, 6, 43, -15, -9, -51, 28, -10, 6, 29, -26, -9, -3, -30, 53, 41, -24, -61, 17, -23, -22, -6, -46, -59, -25, -47, -9, 38, 45, -53, -52, 53, -16, -35, -11, -60, 61, -65, 53, -31, 41, 39, -30, -22, -50, 23, 22, 47, 52, -33, 15, 70, -3, -42, 9, 21, 35, -17, 72, 18, -38, 69, 61, -9, -2, 50, 56, -9, 16, 34, 37, -13, -37, 6, -72, 69, -43, 3, -43, -13, -18, -54, 6, 32, -24, -55, -13, -78, -42, -19, -19, -27, 43, -38, 58, 28, -7, 35, 28, -3, 7, -26, -75, 17, 59, 40, -20, 36, -72, 10, -16, 52, 4, -37, -12, -1, 43, -33, -63, -52, -13, 65, 48, 27, -50, 6, 55, -65, -9, -38, 88, -87, -22, -54, -20, 67, 43, 24, -3, 76, -35, -9, -26, 27, -5, -8, 6, -19, -19, -84, 11, 3, 19, 10, 92, -21, -36, -15, -56, -66, -14, -37, 51, 3, 17, -3, -6, -33, 80, 56, -65, -13, -29, 12, 46, 31, 96, -18, 75, 61, -18, -8, -105, 15, 1, 39, 47, 1, -28, -72, 18, 35, 50, 30, -11, -16, 3, -8, 67, -46, 29, -26, -42, 59, 19, -40, 50, 20, -4, -26, 52, -8, -26, -26, -29, 18, -52, 41, 32, -4, -3, -37, 11, 16, 69, 2, 74, -44, 34, -22, -70, -13, 4, -42, -35, 62, -57, 63, 35, 85, -59, 80, -26, 19, 51, 49, -36, -17, -51, -42, 75, -13, 31, -62, 16, 44, 21, -53, 34, -46, -49, -64, -53, -40, -10, -11, -4, 31, -53, -64, -11, 39, -17, 51, 61, 37, 50, -110, 23, -57, -2, 62, 2, -55, -34, -91, 8, 28, -33, 47, 66, -48, 62, -74, -38, -11, -48, -41, -7, -19, -39, -33, -9, 67, -13, -41, 6, 48, -31, -1, -29, -19, -7, -12, -58, 21, -14, -67, 34, -30, 26, -51, -60, 38, 50, 48, 8, 33, -36, -6, -70, -17, -65, -48, 19, 31, -48, 10, 18, 42, -12, -20, 11, -18, -18, -45, -15, -12, 94, -47, 8, 46, 31, 13, -24, 27, 26, -17, 72, -19, 51, 30, 76, -40, 10, -11, 59, 70, 78, -31, 32, 2, 68, 45, -23, -43, -27, 45, -13, 19, 37, 2, -23, 26, -20, 45, 99, 28, 49, 64, 49, -63, 18, 41, 37, 57, 31, -44, -41, 29, -61, 15, -52, 25, -41, 111, 88, 24, 53, 18, 52, 62, 9, -31, -48, 0, 84, 41, -47, -51, 23, 29, -26, 47, -59, 76, -6, 30, -39, 9, 19, 79, 57, 19, 13, -4, 52, 4, 33, -62, 52, -39, -14, -57, -30, -61, 27, -47, -14, 19, 62, -49, -37, 35, -54, -2, -35, 79, 33, 43, 33, 7, -25, 48, 43, 33, 8, 7, 7, -26, -24, 23, -45, -26, 10, -17, 78, -79, -33, 33, 15, -53, -22, 77, 42, -22, -24, 45, -43, 34, -27, -16, 34, 57, 46, -49, 20, 53, -7, 50, -11, 66, 25, -64, 20, 66, 19, 53, 36, 24, 36, -12, -27, 16, -14, -77, -23, -52, -44, -35, 66, 33, 26, -1, -69, 64, -1, 38, -54, 4, 56, -55, -29, 22, -44, -47, 47, -14, -2, 18, 6, -39, -57, -37, -26, -51, 34, 1, -20, -31, -4, -39, 11, -18, -72, -13, -60, 16, 2, 57, 1, -31, -13, -64, 62, -61, -54, -65, -59, -32, 50, 71, -27, -41, 52, 12, 51, -34, 58, -2, -41, -54, -42, 68, 66, -38, 27, -28, 19, 10, -21, 39, -45, -60, -59, -25, -4, 48, 1, 7, 32, 13, 15, -13, 51, 10, -1, 17, 16, 27, -56, -31, -9, -11, -41, -7, 18, -41, -15, -13, -2, -30, 13, 51, 60, -52, 50, 4, 54, 6, -39, -43, 37, 67, -4, 37, 38, -54, -63, -40, 53, 4, -12, 55, -48, -37, -48, 61, 27, 90, -63, -14, -29, 34, -33, 4, -52, -21, 40, 21, -42, -5, -54, 2, 10, -11, 19, 69, 40, -56, 15, -53, -44, 52, 12, 14, -29, 16, -66, -53, -9, 73, 36, 41, 39, 44, 22, -31, -28, -47, -36, 13, 0, 6, 56, 67, 47, -28, 94, -35, -54, 14, -31, -20, 76, 7, 21, 10, -48, 88, 12, -27, -51, 72, 58, -7, -4, 14, 27, 73, -24, 59, -47, 39, 13, 69, 18, 22, -6, 49, 7, -30, 6, 84, -4, -6, 33, 5, 22, 18, -8, 41, 0, 7, -29, 31, 24, 18, 53, 11, -51, 26, -41, 41, -16, -70, -10, -12, -53, 48, -4, -4, 20, 24, -36, 1, 51, 7, 37, 27, 24, -6, 22, 26, 47, 7, -6, 45, 26, -20, 29, -11, 64, -36, 14, 19, 14, 38, 58, -55, 17, 60, -2, 29, 17, 15, -40, 55, 57, -43, 1, -20, -27, -81, -1, 38, 25, 40, 14, -61, 42, -26, -60, 56, 33, 35, 5, 1, -53, 9, -34, -7, 28, -89, 29, 14, 15, 44, -28, -25, 60, 54, -45, 7, -68, -1, -4, 3, 45, 53, 38, -3, -9, 40, -54, 75, -40, 29, 44, 28, 40, 79, 30, -36, 59, -61, 59, 40, -21, 62, -43, -54, -30, 49, -42, -18, 13, -99, 70, 20, -41, 36, -39, 52, 16, 1, -21, -27, 35, -41, 17, -39, 31, -11, 5, 2, -20, 2, 26, 45, -17, 16, 15, -15, -18, -29, -48, 27, -45, -29, 69, 39, 34, -11, 77, 0, -5, -23, -70, 36, -23, -35, 66, -14, 67, -26, 18, -45, 2, -43, 6, 14, 65, -17, -2, 38, -44, -79, -26, 1, 75, -19, 19, 45, -2, -46, -4, 19, -19, -42, 35, 22, 45, -6, 62, 40, 63, -50, 36, -20, -84, 59, -3, 18, -29, 19, -51, 23, -31, -43, 50, -46, 1, 11, -6, -18, 47, -31, -31, -11, -39, 32, -44, 34, 55, 91, 10, 0, 33, 16, -41, -76, 16, 34, -1, -1, -18, 59, 39, -11, 4, 0, 66, -22, -35, 19, 44, -80, 11, 68, 53, 1, 12, 71, 60, 23, 57, 4, -47, -14, -31, 59, 54, 71, 27, -1, -1, -21, 39, 17, -28, -21, -23, -74, 54, -31, 61, 6, 21, 51, -20, -21, 4, 55, 35, -11, -95, -13, -20, 76, -8, 12, 29, -82, 62, -100, -81, 74, 5, -20, 59, 6, 53, -32, -30, 48, -27, -32, -47, -26, -54, -17, -61, -32, 73, -52, -35, -27, -62, 65, -42, 26, 23, 27, 56, -21, -47, 3, 30, -56, -15, 61, 11, -49, 44, -99, 24, 22, -12, 44, 13, -42, -19, 9, -16, -53, -41, -32, -78, 51, -42, -17, -33, -24, 69, 21, -54, 59, 60, -42, 28, -12, 3, -17, -77, -3, 87, -13, 24, 67, 37, 39, -83, 48, 49, -14, 73, 40, 19, 93, -66, 43, -37, 18, -48, -14, -2, -33, 5, 101, -35, -33, -69, -75, 35, -53, -8, 48, -23, 28, 19, -5, 59, -3, 68, 53, -44, 91, 1, -43, 4, -9, 20, 13, -28, -18, 4, 73, -26, 59, -56, 111, -40, 76, 16, 3, 18, 71, 66, 45, -42, 56, 25, 9, 65, 2, 17, -24, 41, 9, -28, -19, -48, 76, 22, -26, -50, -57, 32, 74, -35, 30, -65, -23, 48, 93, -17, 102, 61, -22, 18, 8, 64, -27, 39, 17, -1, -43, 2, -30, -17, 23, -45, 29, -3, 43, -9, 42, -43, 38, -12, 26, -37, -14, -28, 52, 28, 33, 46, -22, -25, 63, -49, -9, 38, -34, 59, -56, 4, 1, 48, -62, 66, -46, 6, 30, 15, -25, 42, 55, 53, 15, 65, -24, -34, -12, -10, 12, -33, 53, -64, 4, 8, 59, 13, -45, 43, 11, -33, -3, -18, -17, -12, -74, 23, 42, 37, -57, -68, -40, 50, 49, -19, 50, 13, -67, -20, -31, -15, -46, -24, -50, -32, -34, -41, 54, 11, -33, 53, -66, 0, 45, 23, -9, 65, -84, -36, -30, -4, 57, -60, 51, -76, -58, -31, 48, 36, -8, -15, -40, 6, -5, 58, -50, -83, -16, -40, 15, -17, 66, -49, -18, 10, -32, 52, 23, -37, 2, -34, -39, 32, 7, 14, -12, 80, 22, 2, 28, 16, -5, 34, 60, 40, 6, 9, -20, -58, 73, 53, -40, 55, -45, 58, -60, 33, 39, 10, -9, -22, 21, -48, -31, 24, -26, 44, 65, -39, -10, -34, 5, 33, 14, -46, 33, 18, 22, 25, 17, -20, -13, 42, -24, 17, 37, 42, -65, 39, 24, -7, 57, -5, 38, 39, -19, -44, -44, 26, 14, -27, 57, -60, -63, -2, -31, 61, -44, 64, 4, 17, 15, 59, 70, -39, 47, 68, 78, -29, -38, 45, -52, 7, 32, 30, 33, -28, 35, 22, 29, -3, 20, -31, 40, 33, 4, 56, -37, 63, 19, 9, 41, 50, -14, 40, 61, 9, -30, 31, 40, -9, -44, 36, 36, -60, -47, 64, -28, 8, 15, -14, -48, 26, 32, 21, -12, 29, -45, 44, -41, 15, -12, -24, 7, 40, 42, -27, 60, 51, 23, 6, 62, -9, -31, -26, -22, 58, -48, 45, -21, -2, 97, 75, 48, 7, 36, -9, -52, 56, 29, 53, 61, -13, -4, 10, 4, -4, -4, 16, -40, 20, 65, -17, -62, -42, -8, 48, -22, 36, -27, -32, 6, -1, 79, 49, 51, 0, 65, 11, 3, -26, 22, 21, 78, -73, -16, -11, -21, -56, -12, -28, 22, -20, 3, 66, -21, 44, 59, -25, 9, 70, 28, 54, -29, 48, 8, -27, 55, 33, 31, -16, 70, 12, 14, 15, -25, -44, -14, 74, -54, -51, 8, -24, -35, 1, -21, -26, -33, 0, -15, -62, 52, 48, -28, -48, -16, -38, -3, -59, -38, 13, -17, 23, 46, 21, 28, -46, -2, 26, -11, 9, 43, 19, -68, 51, -14, 26, 63, 49, 69, -15, -14, -1, 60, -25, 13, -43, 21, 17, 7, 43, -45, -5, -20, 92, 16, 4, 38, -23, 28, 62, 35, -6, -33, 15, 68, -39, 15, -29, 44, -36, 64, 60, 17, 8, 63, -18, -40, 0, 33, -33, -78, -26, 66, -9, -22, -10, -8, 78, 63, 69, -13, -20, -31, 13, 10, 60, -60, 13, 11, 39, 46, 2, 65, 52, 6, 3, -20, 50, -10, -83, 7, -6, -28, 24, 46, 36, 31, 19, -23, -6, -38, -23, 19, 44, -24, -48, -40, -15, 17, 10, -1, 29, -11, -20, 78, -24, -1, 53, -43, 20, 31, 59, -28, -28, 43, 58, -34, -4, 29, 16, 42, -34, -53, -32, 41, 45, 56, -27, 26, 1, -63, -71, 23, 40, -38, 21, 1, 9, -63, -53, 38, 62, -59, 7, -56, 21, -81, -30, -47, -13, 62, 38, 6, -106, -2, 15, 22, -2, -3, 66, 48, 56, 10, 49, 3, 25, 40, 11, 46, 24, 4, 42, 4, 27, -69, 28, -78, 9, -51, -67, -39, 11, 43, -44, -6, 11, -24, -48, -35, -38, 1, -32, 4, -64, -10, 31, 35, -27, 22, -25, 44, 61, 14, -17, -74, -7, 32, -27, -86, -55, -19, -35, 25, 54, -17, -101, -50, -36, -39, -8, -9, -19, 31, 22, -8, 55, -35, -43, -78, 35, -32, -13, -52, -60, -33, 34, -31, 16, -39, 30, -35, -36, 9, 3, 8, 32, 25, -23, 57, -74, -17, 1, -29, 11, 22, -33, 7, 45, -18, 19, 17, 55, 44, -43, 49, 54, -16, 62, -27, 39, -39, 2, 6, 50, -42, -14, 68, -26, 60, -50, 39, 25, 14, -32, -1, -30, 51, -21, 73, 18, -32, 45, -14, -33, 1, 7, 34, 87, 3, 13, 56, 77, -15, 25, 68, 72, -11, 68, 42, -3, -32, 77, -1, -17, 36, 46, 12, 86, 27, -32, 53, -24, 35, 1, 34, 2, 6, 93, 25, -7, 53, -6, 1, 10, 28, 84, -37, -30, 97, -15, 53, -48, 62, 68, -17, 1, 7, -25, -28, -9, 44, 50, -42, 67, 20, 30, 20, -59, 30, -3, -24, -11, 93, 47, 36, 67, 36, 8, -12, 45, 85, 6, -22, 76, -6, -31, 38, -23, 60, -35, -9, -18, 67, -37, -6, -1, 30, -81, 23, -43, -52, -47, 82, 64, -52, -22, 66, 51, -21, -57, -29, -7, -57, -21, -18, -25, 42, 30, 65, -63, 70, 47, -41, -9, 9, 6, 44, -28, -13, 31, -13, -54, -46, -7, 41, 53, -15, 56, -24, 60, 0, 23, -23, -25, -20, 50, 59, 42, -43, -75, 40, -105, -2, 42, -39, 5, -53, -37, -34, 41, -26, -58, -94, -33, 12, -14, -66, 29, -59, -11, -22, -1, 5, -58, -27, 52, -49, -20, 30, 54, -22, -113, -52, -53, -41, 26, -40, 18, -19, 42, -41, -9, 12, -41, 13, -6, 55, 47, -23, 43, -66, -54, 19, -31, -16, -6, -30, -27, 7, 38, -15, -5, 54, 45, -6, 35, -31, 61, 8, 32, -40, 29, 9, -41, -55, -54, -59, 25, -11, 10, 38, -33, 14, -60, -28, 59, 29, -21, 34, 10, 4, -49, 10, -48, -6, -70, -13, 62, -28, -44, -18, -47, 8, 60, 33, 13, -29, -14, 32, -27, 7, 75, -40, -12, -14, 57, -9, -28, -34, 30, -24, 11, -59, -27, -52, 23, 70, -24, 44, 24, 75, 25, 30, -15, 31, 16, 15, 64, -9, 41, 25, -19, 27, 35, 38, 82, -25, 6, 62, -52, -18, -4, -17, -24, -29, 2, 23, 61, 21, 46, -48, 75, 22, -55, 25, 30, -15, -24, -12, -51, 59, -43, 85, -53, -1, -32, -45, 20, 26, 60, -50, -9, 47, 8, 27, 59, -31, -31, -18, 7, 32, -8, -69, 63, 22, -24, 7, 62, 10, 24, -22, 36, 47, -21, 33, -35, 12, 30, 1, -43, 20, -27, -27, 59, -37, -24, -3, 35, -31, 61, 35, -21, 22, -20, -26, -7, -10, -59, -44, 66, -12, 14, 49, -4, 35, 10, 6, -33, 40, -31, -3, -22, 6, 22, 13, 71, -1, 36, 3, 22, 53, 41, -61, -26, 3, -23, -5, -10, 62, 41, 24, -22, -9, 2, -25, 47, -19, 15, 38, 47, 28, 83, -2, -41, -43, -25, -55, 26, -16, 0, -53, 2, 48, 14, 60, -5, 13, 7, 40, 3, 6, 61, 12, 22, 16, -25, 24, 40, -17, -14, -49, 4, 24, 33, 66, 1, -49, -57, -48, -27, -22, 88, -82, 68, 39, 32, 45, -12, -37, -45, 3, -29, 24, -42, 47, 13, -24, 14, 48, 41, -32, -85, -17, 61, -24, 47, 0, 20, -28, 32, -8, -7, 2, -7, 29, 26, -27, 24, -10, -12, 17, 47, 60, 33, -55, -44, 29, 69, -46, -57, 28, -31, -39, 64, 5, 25, 24, 13, 36, -23, 3, 53, -25, -21, -28, 54, 69, 10, 18, 31, 17, 48, -39, -40, 6, 44, 71, 60, 19, 6, 21, 11, 53, 53, 2, -9, 81, -56, -29, 19, 30, 53, 15, -43, -18, 69, -22, -32, -28, -43, 43, 10, -1, -38, 38, 65, -33, -69, 16, 22, -28, -50, -42, -45, 46, 44, 63, 1, 11, 46, -44, 59, 1, -28, 28, 42, -24, -14, -9, 60, -58, -25, -60, -37, 13, -25, 38, 5, 52, -45, 43, 21, 43, -62, -3, -33, -31, -17, -9, -57, 36, 6, 40, 32, -25, 22, 19, 36, 8, -42, 41, 13, 3, 73, -72, -27, -31, 16, -30, -10, -53, 55, 8, -41, 43, 44, 12, -7, -25, 71, -14, 32, -22, 34, 11, 4, -15, 0, 29, -18, -27, 62, -47, 4, 84, -24, 61, -39, -2, -48, -2, -27, -49, 21, -41, -9, 64, 8, 26, -27, 31, 15, -48, -24, 17, -2, 67, -12, 36, -35, 27, -29, -33, 69, 6, -48, -26, -65, 22, 13, -2, 12, -51, -21, 67, -42, -29, -41, 42, 37, -30, -55, -5, 5, -79, -93, 8, -18, 63, -22, -24, 49, -85, -26, 26, 38, -11, 59, 11, 73, -26, 16, -51, 40, 61, -43, -43, 40, -33, -33, 25, 59, 28, -27, -56, -34, -11, 45, -16, 9, -12, -42, -12, 31, -24, -31, -71, 44, 11, -10, -28, 22, 82, 6, 9, 1, -14, 20, 47, -27, 41, 47, 24, 43, 14, 17, -31, -29, 12, -76, -3, -25, -26, -26, 58, 72, 82, 32, 78, 79, 45, 19, -50, -13, 54, 64, -23, 64, 51, -35, -51, -62, 33, 44, 2, 85, -13, -10, 89, 20, -6, 12, 12, -31, -26, 94, 40, 65, 100, 50, -44, 6, 51, 16, 42, -22, 78, -14, -56, 13, 15, 51, 22, 65, 11, 23, 27, -8, 54, 3, 15, 13, 48, -25, 9, 23, 29, -15, -64, -56, 66, -58, -37, 38, 68, 67, -75, 14, 75, 14, 63, 12, 11, 61, 31, -13, 56, -10, 39, -15, 47, 58, -80, 67, 50, 26, 120, -62, 64, 29, 25, 18, 15, 7, 12, -24, -26, 29, -28, 21, -2, 37, -16, -8, -34, 44, 53, 63, 34, 58, 85, -13, -1, 33, -26, 34, -120, 46, 3, -40, -14, -58, 36, -11, -38, -41, -47, 70, -62, -58, -39, -21, -42, -25, -10, 0, -42, -72, 36, -12, 26, -38, -53, -61, 12, -37, -36, 7, -15, -41, -101, 5, -33, -66, 2, -36, -68, -49, 2, 25, -36, 9, 2, 21, -66, -71, -10, -44, -66, -70, -34, -88, -9, -55, -27, 7, -13, -36, -59, -10, -52, -21, -16, 1, 41, -36, -41, -35, -42, 12, 23, -8, 17, -43, -67, 21, -84, 23, 2, -16, -30, 58, -45, 9, 4, 64, -15, -20, 36, 43, -57, 69, 60, 42, -18, -36, 6, -24, 48, 11, 46, 13, 16, -37, -27, 12, -71, 60, 36, 18, 25, 2, -29, -39, 0, -61, -59, 10, 55, 6, -15, 13, 26, 2, -40, -47, 42, 40, -24, 26, -24, 41, 62, 60, -31, -30, -26, 46, -12, 14, -11, -24, -10, -5, -16, -6, -5, 10, 35, -48, -14, -24, -42, 38, 80, 43, -4, -28, 53, 5, -20, 18, -9, 11, 48, -11, 28, -49, 45, 11, 60, 40, 39, -23, -31, 13, -26, -9, -23, -6, 19, -15, 49, -31, -44, 6, 25, -48, -24, 69, -23, -23, -13, 65, -33, -35, 11, -11, -3, 40, 62, 74, -12, -2, 63, -36, 24, -12, 39, 31, -26, 91, -48, 27, -20, 74, 0, -50, 60, 18, 88, 60, 20, 22, 35, -22, 35, 76, 62, 51, 88, 50, -3, 19, -46, 12, 73, 16, 11, -17, 21, 24, -13, 15, 44, -18, 52, -45, 1, 24, 22, 45, 9, -15, -63, 39, 50, -5, -5, 11, 85, -8, 39, 50, 17, 25, -52, 49, 71, 68, 60, 17, -3, 30, -29, 49, -40, 56, 68, -9, 0, -30, -17, -68, 69, 51, -38, 11, -14, 44, 16, -20, 4, 14, -79, -32, 3, -15, -45, 44, 57, -23, 63, -77, -7, 11, 58, -16, 43, -59, -50, 47, 56, 36, -83, -17, 5, -65, -23, -2, -38, 10, -66, 42, 28, -45, -43, 6, -44, 27, -1, 40, -10, 42, 39, -28, 64, -25, -58, 36, -51, -41, 55, -63, 64, -21, -3, -43, 1, -21, 59, 26, -35, 14, 52, 13, 62, -45, -50, -11, 15, -3, 12, -28, -38, 31, 8, -44, 35, -96, -37, -76, -30, 17, 77, -11, 70, 24, 27, 67, -2, -83, -112, 54, 3, -24, -50, 50, 28, -61, -30, -65, -36, 26, 59, 39, -39, -55, 31, 27, 32, 40, 39, 62, 68, 25, 28, -23, -14, 69, 17, -24, -41, 12, 55, -37, -20, 9, 22, 63, 31, -36, 32, -35, -43, 47, 26, 32, 82, -8, 21, 10, 56, -66, 1, 42, 4, 44, 6, -47, 43, 29, -42, -8, -28, 8, -37, 50, 38, 3, 9, 75, 33, -44, -38, 33, -36, 71, 60, 55, 75, 0, -28, -6, 38, 28, -17, -22, 58, 35, -1, -29, -23, -58, 29, -12, -43, -4, -23, 36, 25, 9, -5, 32, -56, -58, -10, -39, 56, -7, 9, 35, 38, -77, -63, -40, 86, 2, -25, 51, 40, -16, 72, 82, 66, 38, 34, 47, -10, 3, -49, 36, 47, 23, 10, -33, -9, 44, 49, -6, -18, 53, 40, -12, -6, 1, 21, 59, 46, 28, -16, 12, 21, -13, 58, 60, 9, -27, 40, 60, -7, 0, -51, -60, -32, -13, -55, 55, -1, -61, 6, 12, 42, -29, -2, 41, 77, 29, 25, -34, 86, -7, -13, 33, 65, 28, 79, 4, 11, 39, 40, 27, -5, -32, -34, -60, 61, -14, 61, 5, 1, 30, 7, -24, 6, -35, 38, -33, 12, -40, 30, 21, -60, -43, -16, -47, 51, 75, -11, 48, 45, 35, -13, -31, 54, -12, 11, -61, 3, 56, -15, -32, -14, -47, -40, 18, -1, -24, 35, -17, 12, -16, -24, -1, -17, 84, -10, -42, -16, 23, -41, -2, 50, -46, -25, 38, 70, -51, 71, -24, 45, -21, 21, 18, 13, -38, -9, 36, 38, 60, 6, 19, 83, 50, -13, -1, 20, 32, 52, 60, 29, 33, 27, -56, -23, -50, 54, -5, 22, -38, -5, 6, -43, 16, 6, -15, -5, -45, 81, -41, 9, -54, -68, 21, -16, -17, 66, -32, -76, 59, 49, 20, 31, -47, 14, 45, 60, 38, 67, 10, 67, -59, -84, 13, 15, 20, 51, -18, 95, -5, 16, -33, 25, 66, 19, 59, -11, -8, -25, 36, 13, 90, -59, -25, 3, -56, -64, -24, 22, -17, -20, -53, -10, 25, 20, -5, 28, -60, 56, 62, 54, -31, -51, -26, -31, 53, -18, 62, 32, -7, 32, 50, -2, -45, -47, 72, 22, 5, -17, 45, -17, -47, 34, 14, -27, 28, 35, -3, 37, 25, 11, -26, -21, 42, -40, 56, -30, 34, 45, 63, -44, -21, 58, -20, -26, 26, 13, 8, 53, 20, 32, -29, 19, -47, -71, -36, -37, 25, -1, 59, 36, 23, -71, -2, -81, -7, 22, -31, -51, -12, 26, -40, -37, -32, 25, -22, -29, -59, 13, -26, -10, -3, -35, 0, 23, 43, 13, -9, -100, 6, -14, 18, 60, -41, -1, -22, -21, 15, 4, -67, 60, 19, -75, 4, -82, -52, -43, 17, -96, -31, 35, -12, -22, 55, 13, -38, -51, 29, -10, 0, -58, 1, -67, 60, 16, 64, 43, -46, -7, 5, 57, -9, 10, 22, 40, -18, 29, 5, -35, -6, -7, 21, 9, -9, -13, -55, 55, 50, 32, -13, 11, -14, 24, 38, -80, -60, 32, 20, 36, 20, -30, -40, 1, -13, 51, 57, 21, 55, -12, 30, -15, 72, 62, -27, 65, 80, 42, -29, 42, -33, 17, -22, 1, -24, 15, -38, 50, -51, 46, 19, -27, -3, 70, 27, 60, -40, -10, 40, 43, 30, -7, 29, 25, 55, 8, 58, 45, 69, 46, -7, 4, -29, 56, 0, 16, 65, 89, 59, 47, -60, 52, 41, -55, -53, -18, 26, -1, -32, -38, -14, -11, -16, 76, 50, 0, -24, 65, 22, 40, 48, 21, -12, 45, 11, 52, 19, 19, 26, 6, -47, 43, -26, 5, 73, 11, -9, 33, -45, 67, 71, -25, -16, 56, 43, 80, 15, 23, 49, 1, -13, 38, -13, 22, -49, 30, -18, 72, 53, 35, -41, 36, 41, 59, 22, 65, -68, 64, 3, 24, 4, -28, 13, 70, 24, 24, -36, -24, -2, -6, 49, -47, 63, -49, -5, 16, 8, 56, -73, -27, -9, 70, 8, 42, 49, -53, -6, 34, -22, 50, 2, -29, 16, -21, -37, -32, 24, -52, 52, -43, -7, 58, -20, -31, -71, -42, 45, 25, -20, 32, 68, 10, -26, 55, -9, -39, -9, -17, -26, 42, -23, -52, -53, 19, -9, 21, -15, -35, 19, 51, -42, -35, 19, -58, 31, 26, -14, 22, 3, -3, 11, -67, -36, -20, 25, 35, -32, -24, -53, -51, -2, 5, 3, -39, -19, -23, 37, 26, 18, -56, 61, -9, 32, 10, 27, -48, -47, 20, -34, 53, -26, 53, -11, -33, 1, 34, 38, 19, 33, -3, -73, -81, 15, 20, -31, 1, -23, -42, -3, -86, -5, -22, -20, -14, -7, 63, 22, -15, -47, 30, 19, -23, 15, -7, -1, 28, -12, 39, -31, 16, -21, -42, 61, 16, -37, 59, 16, 39, 49, 3, -49, -17, -33, 69, 10, -59, -6, 81, -54, -36, 51, 64, -46, -36, -29, 1, -17, 24, 15, 74, -52, -6, -3, 78, 47, -36, -10, -51, 26, 58, 25, 3, 50, -37, -35, -44, 75, 65, 49, 18, -6, -6, 15, 20, 60, -38, -19, -33, 31, 27, 13, 49, 58, -13, 22, -25, 4, 42, 15, 55, 14, 43, -27, 12, 41, -84, 1, -6, 37, 69, 29, -23, -89, 14, 59, -44, 64, -5, -6, -54, 59, 34, 15, 6, -42, 28, 55, -23, 33, -17, -13, -5, 67, 24, 2, 1, 3, -94, -24, -2, 20, -25, 25, -45, 55, -46, -36, -28, -52, -58, 93, -44, 42, -28, -51, 48, 0, 30, 42, -7, 6, -16, 9, -34, 27, -61, -11, 73, -9, -1, 18, 31, 53, -14, -38, 11, 28, 20, -25, 71, 87, 50, -28, -20, -51, 2, 20, 17, -53, 17, 2, -58, 17, 6, 42, -53, 45, -30, 29, -83, -16, -2, -16, 53, 42, -46, 2, -64, -67, -19, 8, 6, -58, -4, 15, -12, -62, 42, 34, -2, -11, -49, 29, 6, -6, -36, 59, 6, 33, 54, -36, 84, 53, -15, 6, -26, 82, -46, -45, 76, 6, 8, -31, 3, -15, 0, 97, 30, 13, 78, 35, 40, -47, 1, -4, -7, 79, 6, -35, 9, 0, 44, -50, 36, -49, 37, 21, 46, -26, -38, -11, 39, 31, -21, -71, -67, 4, -27, -67, 43, -28, -14, 39, -63, 5, -78, -43, -2, -13, 9, 55, -11, -75, 30, -42, -67, -44, -44, -18, 6, -42, -118, -34, -87, -32, -13, 3, -26, -51, 49, -39, 29, 52, -1, -17, 53, 38, 9, 31, -11, -89, -112, -60, -47, 2, 4, 39, 33, 47, 54, 58, -35, 18, -13, -40, -80, 23, 14, -1, 55, 76, 56, 63, -25, 38, 40, -1, -54, 51, 86, 13, 12, -54, -86, -11, 8, -17, 10, -33, 52, -49, 36, -16, -39, 62, 2, 11, 32, 3, -55, -41, 59, 59, 16, 71, 49, 33, -44, -50, 6, -32, -13, -66, 75, -13, 10, 11, -12, 27, -41, -38, 5, 50, -6, -43, -29, -23, 13, 7, -25, -10, 68, -44, -55, 41, -24, -31, 61, -47, -20, 19, -24, 65, -49, 60, -31, -66, -65, -25, -19, -66, -57, -72, -60, -10, -25, 6, -37, 31, 4, -41, -51, 5, 45, -61, -53, -44, -54, -23, 20, -24, 54, 7, 50, -52, -9, 3, 10, -78, 35, -22, -64, -79, -19, 8, -34, 4, -90, -15, 53, -69, -21, 35, 0, 15, 49, 17, 3, -96, 16, 5, -35, 19, -6, -53, -37, 54, -10, -4, -33, -63, -112, -13, 29, -44, -40, 5, 4, 3, -72, 2, -8, 11, 28, -37, -3, 56, -59, -17, 15, -87, -53, 10, 55, -21, -54, -2, -52, 3, 35, -43, 13, -74, -10, 60, -3, -25, -15, -27, -10, 57, -45, 66, -49, 35, 10, -17, 5, -10, -8, 32, 72, -2, -51, -36, -1, -23, 63, -47, 37, 5, 39, -52, 78, -29, -33, -61, -54, 82, 1, -36, 20, -26, -48, -31, 34, 65, -3, -13, 76, 31, -69, -60, -18, -16, -58, 20, 18, -34, 53, -20, -35, -41, 74, 24, 75, 42, 41, -8, 5, 84, -40, -2, -14, -18, 44, -6, -33, 58, -65, 41, -14, 34, 38, 5, 46, -11, -38, 59, 29, -68, 44, -1, -60, -45, -1, 51, 12, 15, -55, 3, 36, -6, 21, -2, 66, 43, 15, 71, -39, 14, -14, -9, -41, -15, -57, 9, -18, 30, -44, -11, 68, 36, 63, -47, -51, -31, 84, 11, 54, 37, 50, 36, 67, 22, -67, -31, -11, -46, -63, 43, 42, -42, -69, -49, -38, 29, 63, -2, 29, -9, -43, -22, 53, 6, 10, -23, -43, -3, 25, -7, -60, -42, -27, -43, -54, -26, 61, 9, 7, 55, -49, 19, 1, 27, -16, -43, 13, -5, 51, 10, -66, 6, 34, 13, -48, -47, -68, 57, -29, -20, -49, 63, 0, -37, -11, 38, -15, 47, 13, 18, -17, 54, -28, -81, 40, 16, -27, 35, 56, -21, -44, 17, -14, 65, 59, 31, 37, 44, -27, 42, 60, -73, -62, 26, 58, 14, -29, 1, -33, -68, -49, -25, -3, -48, -30, 38, 27, 31, -14, 9, 27, -77, -66, 40, 32, -76, 10, -4, 19, -53, -59, 18, -49, -47, 27, 1, -65, -32, -6, 26, 28, -46, -36, 26, -30, 53, 1, -13, -10, -18, 49, 30, 9, -47, 11, 68, 25, 35, 1, -64, -35, -22, -52, 37, 27, 67, -20, -27, 40, -11, 56, 52, 15, 11, 21, 11, 3, -2, 2, -46, -19, -22, 39, -41, -28, -12, -54, -50, -40, 64, 62, -8, 15, -64, 0, -38, 28, 11, 1, 5, 65, 22, -4, -4, -2, 4, -50, 47, -11, 15, -87, -45, -9, 0, 7, 41, 12, 6, 40, 15, 6, -56, 34, 5, 5, -48, -29, 2, -10, 44, -11, -22, 9, 32, 76, 46, -1, -64, 26, -23, 11, -18, -58, 56, 32, -75, 6, -25, 38, -61, 50, -27, 15, -25, 6, 32, 27, -4, 27, 1, 48, -65, 19, -61, 34, -27, -14, -52, -50, 1, 19, -42, -13, 16, 60, 25, -43, 30, 44, -27, -64, 5, 28, 27, 7, 57, -9, -21, 29, -36, 8, -44, -62, -26, 41, 20, 40, -26, -53, -28, -59, -69, 28, -33, -4, -36, 84, 8, -48, -35, -36, 60, 11, 9, 44, -51, 77, 2, 40, -28, -63, -46, -33, 70, 40, 20, 1, 12, -8, -47, -23, 10, 5, 11, 75, 8, -13, 54, 52, 35, -51, 64, 23, -25, -38, -9, 0, -59, -27, -34, 26, -19, -22, 1, 22, -13, -8, 55, 51, -49, 87, 90, 61, 14, -18, 37, 31, 2, 42, 46, -28, -4, -42, 17, 75, 3, -12, 41, 2, -6, -34, -36, 2, -65, -39, 42, -30, 98, -38, -48, 63, 26, 85, 62, -23, -62, 34, -69, -45, -21, -33, 8, -63, 33, 42, 17, 23, -8, -2, -67, 70, 28, -91, -84, -33, -70, -39, -57, -2, -36, -50, -53, 32, 52, 8, -68, 37, -36, 29, 27, -50, 7, -13, 38, 23, 32, -9, -62, -36, 8, 21, -59, -26, 49, -44, -26, 28, -100, 38, 17, -5, -21, 63, -16, -4, 62, -12, -36, 4, 42, 42, -65, 19, -10, 40, -4, 25, 12, 26, -63, -94, -46, -43, -50, 22, -42, 11, -54, -17, -68, -24, -64, 37, 6, -52, 35, -17, -39, -55, -9, 21, -7, -45, -70, 24, 61, -24, 37, -32, 61, -18, 24, 80, -32, 1, -17, -13, -44, -30, -39, -11, 49, 44, -39, -9, -35, 5, 14, 23, 63, -27, 44, -44, -9, -63, -3, 21, 7, 66, 8, 35, -41, -48, -12, -47, -18, 35, -34, 28, -6, -18, -46, -33, -26, 8, 3, -9, -42, 74, -23, -66, 35, -41, 48, -16, 52, 26, -72, -61, 20, -21, 46, 27, 50, 45, 39, 1, -45, -12, 47, 58, 35, -28, -10, -42, 17, -24, 59, -17, -26, 0, -16, -2, -25, 39, 52, -26, 10, 69, -44, 0, 6, -38, 22, 17, -27, -45, -67, -16, -13, -33, -95, -56, 7, -56, 1, 52, 26, -16, -5, 54, 40, -47, 36, -46, 28, -16, -68, 18, 33, -37, -51, 14, 15, -109, -37, -31, -8, -59, 28, -12, 10, 21, -86, -6, 30, -5, -5, 46, -54, -11, -51, -40, -54, -3, 38, 17, -40, -63, -36, -63, 24, 11, -81, 44, -48, 12, 2, -60, -27, 53, -69, -6, -55, -22, -18, -58, -48, -24, 22, 24, 71, 60, -64, -52, 65, -65, 63, 50, 50, 36, -57, 10, -20, -54, -31, 56, -27, 3, -45, -50, -22, -5, 23, 31, -33, 26, 78, -18, 35, 26, -20, 0, 49, 12, -49, -39, 66, 4, 60, 77, 48, 57, 45, 47, -31, -10, 63, -12, 17, 70, 19, 97, -24, 45, 66, -42, 28, -20, 17, -38, -10, 15, -4, -28, 3, -16, -2, 28, -13, 53, 41, 11, 42, 53, 7, 43, 2, -18, 42, 18, 54, 10, -7, -37, -24, 42, 18, -29, -50, 24, -3, 43, 10, 31, 10, -57, 87, -24, 15, 58, 48, 58, -36, 10, 52, 38, 9, 5, -17, -48, -101, -11, -11, -36, -21, 2, -42, 59, -19, -72, 55, 51, 21, -12, -69, 24, 25, 11, -28, 53, 5, 22, -26, -50, -52, -72, -7, -9, -41, -38, 49, 41, -14, -31, -34, -66, 5, 12, -42, 30, -90, 50, 43, -94, 0, -29, 45, -57, -59, 3, -50, 58, -59, 29, 50, 31, 44, -35, 30, -71, -23, -44, 9, 36, -13, 41, -30, 29, 3, 51, 13, -11, 42, -75, -33, 28, -9, -5, 40, 22, 48, 22, 8, -23, 34, 5, 42, -36, 1, 15, -14, 13, -8, 20, 31, -64, -36, 14, 46, -51, 32, 27, -15, 12, -37, -32, -55, 6, 15, -27, -57, -61, 3, -40, -61, -43, 39, -18, -19, -57, -43, -41, 10, -80, -2, -74, -56, 22, 10, -17, 10, -2, -58, -74, 24, -56, 48, -6, 22, -8, -54, -68, 6, -30, 7, 26, 38, -10, 44, -46, 42, -39, 42, 65, -60, 59, -45, 36, 58, 2, -18, -48, 58, -36, 1, 30, 25, -18, -23, -84, 18, 10, 44, -35, 16, 26, 14, -23, -46, 55, 51, 52, -22, -44, -48, -20, -16, -31, -20, 15, 58, -14, 50, 61, -9, -39, 46, -9, -38, 22, -63, 85, 64, 4, -2, -40, 15, -12, 50, 22, -16, -48, 13, -19, -32, -46, 35, 0, 41, -35, 75, -25, -59, 29, 29, -68, -26, 71, 60, -2, -34, 32, -19, -32, 8, 62, -58, -35, 24, -31, 49, 27, -50, -74, -55, -48, -3, -16, -22, 47, -35, -12, -25, -47, -3, -40, -82, 50, 38, 82, 59, -82, 10, 22, 41, -2, 31, 36, 50, -11, -20, 64, 19, -31, -74, -68, -7, 36, -37, -35, -33, -69, -30, -65, -2, -25, 50, -43, -19, -19, 2, 6, -54, 55, 54, 70, 47, -88, -57, 62, 33, -63, -31, 15, 80, -5, 15, 18, -45, 30, 39, -27, -57, -21, 53, -41, -56, -13, -18, 48, -8, 64, -15, 51, -19, 42, 53, 30, 30, -40, 50, -32, -59, -12, -4, -35, 16, -37, 57, -37, -26, 54, 7, -21, 75, 50, 45, -102, 29, -10, -23, 7, 50, 30, -43, -78, -33, 37, 19, 28, -22, -20, 50, 7, -11, 33, -65, -1, 49, 41, 75, -36, 24, -35, -13, 43, 16, 82, -15, -56, 21, -24, 43, 39, -14, 37, 9, -32, 9, -71, 62, 54, 64, -4, -18, 76, -83, -42, 27, -51, -20, -13, -52, 15, -36, -40, 33, 26, -10, 20, -40, -14, -16, 11, -36, 14, 50, 61, -22, -17, -38, -17, -19, -17, -9, -81, -10, -77, -102, -7, -12, 27, -27, 53, -18, 1, 44, 48, -57, 11, 37, -17, 49, -88, -3, -25, 43, -41, -40, 16, 9, 41, 47, 9, -33, 43, -4, 30, 35, -68, -76, 12, 70, -30, 20, 17, -41, 27, -36, 1, 16, -5, 15, 51, -38, 63, 72, -56, -38, 68, 17, 14, -7, -26, -39, -6, -15, -42, -32, -22, 47, 30, 27, -8, -4, 65, 17, -44, -88, 55, 32, 54, 17, 7, 20, 2, -33, 96, 40, 24, 46, -15, 30, -44, 15, -24, -59, 58, 61, 33, 8, 23, -27, -28, 32, -24, 20, -90, 48, -40, 34, 42, 41, -2, -11, -17, -26, 53, 62, -46, 35, -2, 9, 0, 40, -20, -24, 58, 59, 24, -34, 12, 42, 36, -10, 15, 33, 19, 32, 38, 40, -30, -33, -61, 8, -22, -61, 26, -24, -56, 22, -19, 53, -38, -5, 66, 62, -54, 56, -27, 35, -24, -47, -44, -61, -11, 58, -45, -24, -4, -28, 24, -11, 4, -54, 3, 43, 10, -49, 37, 35, -13, -51, 34, -43, 14, 48, -59, 27, -66, 64, 1, 44, -20, -1, -23, -44, 20, -16, -86, 19, -5, -27, 19, 27, 55, 15, 31, -2, -21, 4, 18, -45, -51, -60, -22, -6, -13, -24, -25, 2, 6, 31, -104, 26, -51, 43, 8, -61, 68, 30, -87, 18, 49, -60, -26, 9, -4, 11, 21, 55, 22, 16, 45, 18, -12, 20, 26, -68, -22, -42, -7, 29, 50, -34, 47, -25, -46, -29, 56, 71, -14, 1, 9, 51, 7, 25, -31, 5, 1, 54, -47, -27, -8, 45, -59, 6, -22, 50, 84, -18, -1, -14, -15, 30, 67, -33, -36, -21, -29, 45, -18, 74, -4, 43, 61, 51, 9, 8, -27, -10, 44, 1, 35, 21, 74, -33, -41, -25, -12, -27, 47, -21, -12, -12, 70, -20, -40, 33, 10, -33, 81, 59, 19, -40, -19, 44, -25, -14, 17, -14, 34, 40, 58, -92, 18, 34, 43, 36, -49, -20, -74, -40, 39, -52, -78, 39, 46, 55, 20, 0, -57, 58, 7, -3, 68, -37, 38, -44, -23, -8, 27, 10, -39, -38, -39, -50, 1, 33, 42, -88, 64, -46, -39, -14, -17, 69, 6, -31, -39, 26, 18, 14, -56, -19, -85, -19, 29, -28, 20, -53, -58, 22, -49, 37, 35, -17, 35, 24, 45, -15, -29, 71, -9, -47, -9, 47, -88, -40, -19, -62, 56, 2, 46, -56, -36, 21, -61, 58, -44, 43, -3, 37, 33, -56, -56, -67, 43, -23, 37, -102, -32, -20, -69, -6, 60, 52, 71, -15, -22, -7, -22, 8, 51, -34, 54, -49, 19, 56, -1, 29, 59, 35, 45, 41, 18, -34, -40, 37, -25, -16, -20, -2, 8, -57, 17, 56, 8, 65, -24, -32, 2, 40, -83, 46, 9, -1, -69, 40, -38, 4, -44, -45, -46, 32, 31, 55, 64, -48, -37, 67, 28, -13, 54, 3, 53, 58, 3, 19, -39, 50, 63, 13, -60, 65, -41, 31, 32, 26, 29, -69, -4, -16, -43, -47, 10, -38, -32, -7, -24, -50, -9, -50, 56, -43, -64, -50, 37, -33, -25, 18, -36, 0, -66, -5, -73, -60, -67, 3, -35, 15, 29, 26, 4, 53, -10, 9, -62, 30, 38, -15, -4, -66, 10, 41, -40, 56, -17, -63, 62, -5, 1, 30, 25, 32, -52, 43, -51, -9, 35, 51, -34, 58, 1, -77, 25, -12, 26, -27, 26, 8, 4, 14, 41, -76, 9, -8, -13, -57, 57, -93, 6, -23, -60, -43, 0, -60, 17, -20, -15, -31, -15, 36, -4, -9, 2, -3, -52, -45, 24, 44, -1, -105, -9, 45, -22, 18, 29, -86, -18, 42, 9, -38, -28, 51, -32, -69, -5, -67, -49, 5, -32, -99, -43, 17, -20, -27, -18, 3, -17, -6, 3, -26, -21, 67, -99, -12, 9, -64, 16, 43, 18, 30, 47, 26, -46, -51, -60, 25, -66, -35, -74, -11, 7, -97, 28, 39, 4, -3, -18, -4, -69, -44, -18, -50, -39, 47, 68, 2, -44, -51, -3, -40, -47, -24, -48, -7, -34, -22, 20, 60, 2, -40, -52, -55, -50, -8, -39, 36, -34, 48, 28, 51, -80, 36, -35, -48, -53, -25, 1, 52, -22, -47, 39, 51, -13, 29, -74, -54, 50, -46, 35, -64, 32, -47, -60, -21, -22, 18, 25, 53, 22, -58, 21, -57, 52, 17, -72, 28, -57, 58, -20, 47, -23, -20, 39, -73, -52, -27, 5, 22, -41, -65, 39, 21, 5, 30, 37, 5, -61, -15, 30, 42, -34, -27, 46, -2, 47, 2, -2, 52, 1, 21, 99, 10, -34, -6, -15, -33, 79, 85, 26, -5, 29, 55, 12, -40, -44, 0, 50, 43, 59, 59, 35, 53, 40, 0, 26, 5, 39, -16, -30, -12, 19, 48, -48, 74, -23, 16, 67, -28, 84, -1, -13, 33, 44, 12, 76, -24, 4, 34, 25, 50, -42, -50, 9, -62, -8, 11, 12, 70, 73, -6, 25, -47, 29, -16, 83, 26, -102, 36, 65, -28, 49, 75, 46, -53, 46, 17, 70, 24, -15, 39, 8, 19, 56, -26, -82, 29, 62, 44, -24, -25, -29, -21, -43, 14, 11, -41, -45, -25, 21, -2, -42, 54, -10, 25, 0, -46, 23, 56, 22, 30, -34, 36, 21, 40, -67, 33, -46, -60, 46, -45, -18, 56, 59, -61, 30, -21, -46, 16, -68, 63, -32, 49, 28, -46, -49, -13, 26, -67, -36, 11, -32, -1, -17, -12, -43, 35, -51, -65, 0, -27, 41, -31, -4, 37, 33, 0, 11, 60, 50, 19, -47, -43, -32, 35, 61, -33, 55, -76, -19, 23, 15, 55, -63, 44, 43, 2, 12, 13, 9, -19, -48, -50, -34, -43, -36, 31, -37, 49, -73, -41, -53, 6, -17, 32, -30, -2, 1, 22, -55, 34, -49, 24, 48, -66, -31, 79, 15, 38, 45, -8, -36, 1, -49, 43, -50, 12, 21, -18, -24, 9, 11, -3, -43, -30, 50, 2, -57, 40, 40, -30, -13, -80, 56, -57, 19, -37, -25, 61, 48, -19, -9, -24, -65, -51, -91, -45, -2, -42, -33, 31, 4, 17, 47, -5, -2, -7, 65, -21, -54, 5, -41, 21, 29, -7, 40, 6, -56, 3, -1, -18, -44, -17, 22, -16, 55, -19, 31, 46, 32, -24, 20, 32, 8, 3, 66, -23, -42, -15, -61, 32, 28, -8, -32, -22, 48, 68, 35, -49, 31, -19, 48, -29, 37, -73, 73, -1, -16, 0, 33, -54, 6, 19, -55, 40, -23, 16, -5, 68, -3, 40, -101, 65, 32, 36, -75, 36, 55, -27, 33, -26, -28, 31, -41, -12, -1, 49, -61, -34, 7, -8, -69, -7, -10, -80, 17, -25, -1, 2, 19, -37, -50, 10, -26, -30, 21, -13, 10, 17, -24, -38, -42, -13, 40, 16, -59, -24, 7, 61, 23, 29, 22, 39, -48, -57, -28, 23, 55, 42, 9, 38, 18, -70, 15, -7, 1, -58, -49, -65, 65, -69, -86, -93, -49, -3, -63, -37, -28, 0, 27, 64, 19, -23, -77, -25, 52, 38, 34, 1, 42, 42, 13, 18, 21, -21, -3, -63, 1, -13, 67, -66, 3, 39, -55, -26, 47, -56, 50, 59, -11, 69, 39, -59, 34, 33, -42, 14, 12, 6, 12, 37, -26, 55, 75, -4, -68, -41, -51, -40, -19, -4, -22, 15, 58, -28, -4, -86, -37, 72, 25, 49, 44, 19, 40, 2, 31, 11, 45, -7, -53, 9, -50, 12, -60, -30, 47, 5, 24, -20, -8, -23, -89, -48, 78, -5, -18, -8, 63, 63, -31, 40, 16, -23, -32, 37, 32, -64, 32, 13, -21, 10, 56, -59, 37, 28, 31, -3, 32, -36, -66, -1, -75, 13, 42, 11, 22, -2, -63, -12, 52, -73, 34, -82, -1, -32, -54, -24, 10, 58, -34, -71, 0, 40, 42, -5, 23, 50, -43, 38, -66, -39, -10, -50, 27, -30, -35, -28, -32, -79, 4, -52, 19, -4, 17, 62, 47, 16, 22, -17, -37, 13, -62, -45, 20, 4, -35, 43, -64, -42, -30, -55, 35, -60, -70, 47, -46, -7, -37, -33, 51, -87, -65, -15, 36, -55, 2, -23, -34, 35, 34, -60, -24, -48, -54, -35, -57, 0, -51, -40, -26, -28, 26, 18, -27, 47, -32, -15, 43, 6, -48, -48, -16, -90, 35, -55, -81, -32, 10, -68, 27, -65, -65, -37, 51, -57, -100, 34, -24, -113, -65, 57, 22, -28, -9, -21, 21, 10, 10, -6, 13, -73, -9, 37, 30, -65, -24, -55, 18, -67, -26, -36, 31, -4, 45, 25, 31, -54, -37, -13, -20, -11, 47, -13, -61, -2, 5, 0, -73, 27, -24, -6, -53, -81, 7, -69, -46, -28, -2, -64, 17, -8, 51, -56, 41, -26, 11, 9, -71, -26, -1, -16, -82, 2, -18, 60, 62, 11, -20, 39, -97, 27, -35, 34, -33, 27, 22, 10, 30, -98, 52, -1, 21, 18, 16, -74, -3, 0, 4, 44, -40, -31, 11, -33, 36, 39, -61, 34, -74, -86, 37, 37, 19, 5, 2, 20, 48, 25, -42, -1, 79, 27, -3, 11, 25, 20, 28, -38, -3, 55, -80, 11, -7, -55, -102, -3, 32, -60, -41, 3, -1, 63, 29, 33, -8, 43, 50, 90, 68, -18, -86, 40, 23, -20, 21, 60, -24, 20, 13, 20, -23, 42, 18, -80, 37, 48, 51, 57, 33, 6, -78, -19, -9, -22, 53, -10, 12, 24, -15, 32, 74, 18, -97, 78, 27, -74, -3, 31, 35, -74, 26, -45, 30, -47, 52, -11, 21, -37, -35, -11, -2, -17, 36, -4, 58, 5, -23, -3, 37, -50, -17, 62, 19, -1, -12, 82, 11, 12, -1, -3, -1, -58, 12, -33, -41, 30, -38, 43, 16, -1, 54, -1, -65, -36, -81, -16, -21, -44, 61, -19, 26, -35, 36, 41, 10, 50, 37, -1, 29, 64, -14, 4, -43, -46, 17, -49, 19, 57, -16, -7, -42, 19, -7, -49, 15, 57, -36, -49, 30, 48, -1, -25, -52, 33, -9, 33, 54, -23, -44, 55, -75, -63, -3, 43, 38, 39, -2, -52, -28, -38, -58, 43, 55, 31, -82, 25, -87, -12, -29, -46, -22, -42, 28, -18, 18, -25, 29, 30, 9, -79, -9, 14, -47, -39, -35, 1, -3, -78, -44, 29, 46, -22, -14, -44, -29, -37, 34, 22, -85, 61, 47, 14, 45, -30, -40, 60, -47, 30, -43, -38, -56, 64, -11, 49, 49, 8, -6, -51, 6, 75, 35, 2, 0, -21, -59, 26, 10, 27, 23, 38, 53, -2, -14, -25, -62, 30, -41, 35, -8, 28, 10, 21, -54, 27, 21, 65, 41, -39, 62, -55, -31, -62, -61, -32, -4, -40, -41, -39, 22, 59, -1, -2, -2, -48, -67, 45, -21, -53, -48, 6, -19, -30, -1, -26, -57, -37, -16, 33, 3, -3, -42, 54, 13, 49, -12, 11, -34, -66, 36, 34, -53, -40, 58, -23, 22, -90, -4, 52, 21, -4, 47, 4, -22, 51, 12, -10, -7, 51, -48, -33, 15, 7, -8, -32, 63, 22, -55, -7, -44, -51, 7, -11, -50, 33, 49, -46, 21, 42, 40, 52, 22, 0, 26, -62, -12, 16, -64, 41, 17, -53, -77, -8, 64, -64, 15, 27, -28, -93, 2, 15, -31, 39, 41, -92, -45, -16, -35, -77, -90, -49, 50, 42, -3, -34, -18, 1, -61, -2, -81, 41, 32, 41, -69, -26, 48, -28, -42, -14, -11, -92, 13, -44, 56, -5, -46, 39, -23, 80, 30, -62, -49, -81, -9, 0, -1, 56, -58, -23, -40, 14, -101, -19, 2, 1, 26, 38, 15, 18, 11, 47, -16, 40, -31, -7, 43, -56, 32, 89, -42, 62, -12, -22, 36, 34, 17, -45, -19, 25, 6, -27, 0, 38, -68, 52, 43, 59, -36, 50, -38, -73, -44, 36, 44, 68, -68, 10, -38, 27, 49, -14, -49, 31, 39, -32, 31, 4, 44, 57, 27, -8, 39, 47, 63, 24, 65, 29, -30, -42, 12, -57, -3, -61, -74, -38, 35, -13, 34, -28, -2, -44, 40, -14, 19, 15, -33, 45, 42, -9, 34, -16, -21, 20, 24, 19, 18, 55, 21, -60, 31, -43, -43, 39, 57, -23, 2, -27, -48, 7, -40, -33, -26, -68, 5, 2, 38, -66, 52, -40, 26, -39, 6, 0, 55, 10, -48, -13, -5, 57, 39, -31, -34, -39, -22, -62, -2, -42, -3, 21, 43, -69, 49, -60, 15, 19, -57, -6, 31, 3, -13, -43, -68, -79, 4, 13, 7, 48, -34, -50, -14, 47, -42, -59, -28, -31, 16, 29, 42, -88, -52, 38, -62, -27, -15, -44, 36, -22, -44, 16, -45, 35, 24, 21, -54, -100, 72, 7, 33, 33, -85, -6, 80, 1, -58, 14, 19, -80, -15, 56, 56, -62, -9, -68, -53, -76, -1, -17, -20, 5, -30, -11, 23, 34, 15, -22, -88, -95, -15, 8, 1, -12, -24, -61, -53, 53, 19, 27, 40, -47, -14, -31, -86, -27, 0, -59, -34, -106, -8, -62, -27, -16, -2, -30, -59, -40, -73, -15, -29, -15, -114, 37, 8, 14, 27, 14, -28, 38, -88, 32, 48, -77, -2, 12, -65, 10, -74, -50, -35, 3, -54, -22, 4, -40, 40, 15, 23, -9, 32, -55, -19, -36, -70, -50, -65, 15, 54, 12, -11, -16, -48, -55, 9, -63, 69, 33, -49, -40, -47, 49, -7, 19, 23, -15, -55, -70, -68, -16, -22, -30, -45, 13, 41, -75, -8, 50, 9, -27, -10, 48, 35, -21, 74, 58, 41, 43, -69, -52, 8, -45, 34, -57, -12, -7, 38, 40, 35, -18, -44, -8, -53, 59, -4, 18, -50, -96, -39, 2, 55, -28, -14, -12, -33, 20, -27, 32, 18, 10, -85, 22, -48, -9, 36, -49, -36, 11, -52, 1, -30, -30, 13, -88, -1, -52, 27, 56, -20, 53, -50, -6, 26, 62, 29, -35, 0, 49, -87, 68, -14, 26, -20, -46, 70, -79, 31, -45, -20, 20, 15, -27, -42, -3, 75, 58, 36, 57, 20, -38, 9, 11, -89, 40, 58, -76, -44, -9, -77, 53, -14, -10, 11, -28, 21, 35, 13, -80, 40, -8, -1, 13, 40, -59, -35, -38, -11, -20, -45, 75, 30, 62, -82, -53, -88, -8, -23, -34, 14, -28, -81, -17, 7, 25, -29, 25, 9, 19, -62, -28, 43, 45, 16, 13, -60, -14, -30, -48, -43, 50, -32, -26, 58, 19, -36, 15, -26, -3, -54, 45, 39, -34, -39, -62, -44, 61, -35, 37, 25, -7, -23, -1, 45, -47, -40, -39, 33, 9, 53, 33, -27, 4, -31, -49, -36, 32, -50, 18, 18, -7, -32, 13, -39, -57, 16, -31, 61, 39, -41, -40, 18, -20, 35, 27, 56, -47, -16, -37, 52, 25, -11, -52, 27, 26, -10, 59, -50, -9, -8, -26, -12, 28, -18, 8, 68, -41, 5, -51, -54, -68, -38, 10, 83, -36, -61, -21, -2, -6, -6, -7, 50, 21, -46, -11, 65, -10, 27, 51, 34, 14, 3, -14, 49, 59, 31, 39, 13, -26, -60, 6, -47, 46, -37, 44, 68, 51, 4, 34, -63, -17, -14, -32, -8, 46, 39, 7, -32, 44, -28, 45, 8, 53, 21, -38, -27, 31, 7, -13, 74, 48, 17, -36, 22, 34, 10, 16, -7, -11, -42, -63, 4, -22, 60, 58, -18, -13, -52, -18, 38, -40, 28, -14, -8, -52, -2, 51, 76, 54, 52, 43, 29, 45, -65, -27, -19, 25, 47, 37, -11, 47, -17, -55, 51, -44, 62, 57, 46, 24, -65, 44, -52, -55, 10, -19, -52, -2, 9, -10, -18, 51, -53, 3, 30, 36, -11, 6, -66, 2, 1, 23, -2, -36, 38, -26, 52, -5, 39, -86, 23, 38, -39, 52, -72, 26, 33, 56, -28, 15, 2, 32, -101, -1, 26, 37, 48, -10, -80, -7, -11, 12, -9, 22, -34, 14, -29, 30, -21, -71, 4, -17, -28, 22, -43, 9, -57, 1, 19, 32, 24, -32, -24, -17, -21, 40, -52, -27, 4, 6, 3, -48, -94, 35, -37, -51, 21, 59, 39, -59, 2, 41, -29, -37, 8, 15, -4, 34, -35, 40, -30, 48, 20, 44, -8, -8, -91, 31, 47, -48, 0, -32, 18, 58, 75, -39, 21, 29, -35, 25, 34, 55, -17, -60, 14, -1, 28, -35, -42, -34, -6, 19, -12, -50, 29, -27, 44, -71, 26, -24, 36, -45, 18, -2, -2, -22, 99, -58, 34, 15, 19, 42, 33, -32, -43, -25, -25, 60, 8, 4, -48, -70, 6, 68, -24, -58, -4, -65, 44, 28, -40, -15, 26, -31, -38, 39, -40, 17, -22, -36, 11, 47, -77, -64, 33, -32, 32, -68, 40, 51, -38, -40, 23, -69, -32, -30, 45, -40, -6, -33, 30, -94, -26, -62, -16, -1, -62, -14, 73, 51, 6, -8, -56, -59, -33, -29, -47, -80, -10, 14, -77, -17, -11, 33, 25, 42, -8, -27, 18, 12, -30, 45, -80, 0, 9, 25, -61, -68, 17, 29, -40, -53, -9, 32, 11, 12, 65, 26, -26, -35, 17, -68, -87, -4, 30, -54, -59, -57, -50, 18, 13, 20, 27, -40, -21, 74, -16, 15, -38, -47, 22, 22, -48, 37, 19, 31, -32, -24, 65, 22, -7, 25, -56, -34, -94, -1, 27, -72, 16, 0, -31, 0, 55, -28, -21, -61, 49, 42, 15, -8, -53, -54, -73, 12, 33, -36, -15, 26, -28, 11, 7, -55, 14, -47, -61, -28, -45, -44, 20, -66, 19, -16, -2, -87, -16, -43, -85, 26, 46, -38, -72, 10, 18, 2, -15, -28, -63, -1, -70, -20, 59, -72, -73, -57, -52, 8, -26, -29, 12, -62, 53, 19, 14, 44, -74, 12, -60, 44, -93, 44, -29, 25, 18, 0, 33, 27, 36, -50, 14, 33, 16, 42, -8, -62, -84, -1, -65, -4, -44, 43, 51, 37, 7, 24, -20, -45, -36, -91, 32, -61, -68, -16, -22, -57, -42, 32, 15, -41, 40, -31, 3, -57, -1, 30, -30, -31, -95, 13, 6, 1, -54, -33, -51, 2, -28, -36, 30, -4, -32, 26, -21, -26, -63, 41, -61, 24, 3, 42, -50, -14, 55, -16, 8, -53, -36, -23, -55, 20, -99, -46, 39, -16, 42, -13, 8, -27, 44, 32, -35, -4, -2, 26, 33, -4, -24, -70, -38, -47, 1, 16, 56, -10, 14, 38, 50, -11, -50, -85, 28, 7, -63, -25, -15, 20, -16, 26, 32, -32, -40, -33, -30, -40, 45, 29, 29, -7, -52, 25, -6, -28, 28, -10, -34, 13, -6, 0, 6, -13, 11, -34, -44, -6, 63, -11, 18, -20, 13, 19, -43, 23, 63, 5, 3, 48, -44, 17, 44, 44, -14, 52, -1, 40, 33, -20, -49, -42, 24, -22, -7, 31, -78, -35, -32, -23, -86, -34, -6, 27, -63, -59, -56, -16, 42, -18, 40, -8, -40, -74, -81, -39, -85, 8, -43, 1, -1, 57, 0, -7, -29, 36, 55, 50, 22, -50, -47, 0, -30, 6, -69, 2, -32, 29, 26, 30, -39, -23, 5, 34, 31, 73, -31, -1, -18, -35, -35, 32, -29, -17, 15, 17, 7, 56, 36, 37, 40, -1, -20, -40, 21, 23, 29, -31, -5, 3, 28, -38, -19, 39, -50, 74, 71, 0, 44, 45, -77, 55, -85, -63, -86, 47, -15, 46, 10, -1, -72, 0, -20, 15, 38, -8, -29, 58, -16, 20, -15, -28, -64, 18, 39, -7, 18, -34, 18, 52, -15, 64, -16, 33, -43, -13, -71, -6, 52, 34, 60, -12, -81, -2, -59, -25, -26, 30, 3, 18, -44, -44, -12, 2, 59, -26, -32, 27, -43, -15, -22, -5, -1, 21, 40, 11, -30, 20, 64, -4, -17, 8, 43, 1, -1, 14, 24, 17, -11, 23, 0, -65, 55, -24, 56, -6, -26, 21, -36, 22, 38, -28, 43, 3, 38, 12, 24, 53, 36, -27, -27, 24, -42, 32, 36, 38, 44, 26, 29, 61, 10, 4, 72, -26, -36, -16, -20, 74, -13, 22, -57, 7, 33, -28, -53, -42, 49, 57, 18, -47, 17, -11, -2, 31, -30, 17, -60, -2, 41, -2, 64, 75, -29, -65, -79, 23, -3, -75, -49, 15, 20, -42, -26, -63, -29, 31, 24, 9, -6, 31, 2, 42, -59, -46, 5, 6, -16, -7, -48, -20, -29, 3, 24, -49, 0, 18, -61, 51, -17, -59, 12, -44, -22, -103, -60, -46, -58, 10, -4, 11, 45, -22, -17, 19, -15, -95, -60, -55, -41, -48, -44, -5, -84, -59, -46, -15, -3, 20, 0, 24, -33, 6, 33, 43, 21, -6, 55, 27, -9, -8, -39, 20, -33, 5, -27, -8, -36, -4, -24, -24, -46, 1, 34, -53, -12, -3, 40, 9, -19, -37, 24, -3, -65, -2, -38, 21, 42, -66, -32, -61, 5, -27, 14, 80, -8, 29, -43, 54, 2, -27, -97, -38, -60, -52, 51, 53, -16, -40, -4, -45, 5, -23, 71, -25, -98, -27, 69, -9, -34, 14, 21, -68, 1, -18, -58, -33, 13, -8, -11, 53, 34, -44, 60, 22, -43, -63, -59, -56, -34, 31, 38, 23, 42, 42, 4, -33, 11, -15, 24, -29, -52, 21, -9, 38, 2, -3, -51, 22, 5, 46, 65, 6, 47, 16, 9, 62, -76, 27, -53, -65, -48, -43, 38, 19, -38, -47, -83, 33, -83, -85, -8, -2, 5, -44, -37, 19, -41, -41, 34, -71, 7, -36, -22, -44, 3, 2, -98, 19, 33, 28, -58, -77, -42, 12, -76, -46, -16, 29, -4, 28, -64, -92, -32, 41, -64, -12, -72, 19, -46, 2, -4, -22, -8, 49, -17, 36, -83, -62, -21, -28, -48, 39, -41, -38, -64, -58, -61, 4, -24, -72, -12, 22, -50, -17, -78, 7, -8, 23, 6, 15, -44, -45, -62, 32, -15, -66, 50, 57, -13, 29, 51, 23, 52, -47, 57, 45, 25, -4, -25, -77, 1, -52, -13, -30, -36, 10, -56, -34, -64, -24, -31, -11, 24, -44, 41, -24, -30, 49, -16, 5, -29, 9, -56, -58, -65, -90, -68, -62, -41, -16, 60, -14, -67, -16, 21, -49, 71, 6, -13, -53, -21, 78, 41, 17, -50, -42, -75, -52, 8, 58, 17, 57, -6, 64, -31, 32, 17, -96, -19, -14, -24, -30, 20, 41, -55, -79, 28, 24, 36, -25, -16, 11, -30, -37, -28, 10, -19, 11, 9, -77, -33, 26, -15, 24, 33, -35, -61, 30, 7, -1, 50, 63, -54, 0, 5, -18, 27, -20, 39, -54, -97, 58, -15, 1, -71, 39, 37, -83, -30, 24, -56, -57, 66, 28, -26, -39, 4, 20, -54, 11, -28, 16, 36, 43, -35, 35, 7, -68, -10, -91, 53, -15, 18, -55, 36, -27, -38, 55, -40, -19, -19, 2, 19, 64, -42, -11, -64, -52, -48, 34, -4, -14, 12, 4, -5, 42, 6, 40, 13, -6, 51, -25, -72, 59, -21, 6, 14, -23, -27, -4, -25, -44, -26, 42, -23, 19, -17, -48, -37, 51, 7, -55, 2, -39, 41, -33, 49, -8, 9, 37, -45, -24, -80, -84, -94, 25, -5, -36, -3, -21, 21, -15, -12, -49, 24, -49, -14, -67, -34, 35, -89, -60, -82, 15, -42, -44, -36, -76, 18, 31, -28, -28, -19, -37, 45, 61, -85, 38, -21, -40, 3, 44, -80, -65, -54, -41, 2, -10, 19, -10, -42, -10, -44, -45, -44, 23, -37, 59, 32, -75, 67, -34, -61, 50, -30, 53, 14, 44, -36, 52, -33, -50, 43, -10, 31, -49, -35, 4, 62, 26, 45, -68, -51, -38, -32, 11, -51, -34, -7, -28, 34, 48, 55, -18, 5, 35, 35, 9, -46, 36, 18, 34, -2, 48, 57, 77, 60, 10, -51, -49, 33, 21, -46, 43, 45, -38, 14, 5, 1, 73, -9, -15, 46, -43, 64, -6, 19, -1, 60, -50, 35, 31, -56, 11, 4, 4, 70, -13, -17, 93, 52, -30, 35, -37, 51, -21, 34, 42, -51, 1, 40, 51, -49, 18, 38, -20, 27, 14, -33, 61, 12, 40, 68, 5, -8, -25, -54, 35, 53, 64, 68, 16, -3, -58, -29, 26, 37, -43, -26, 3, 11, 57, 46, -45, -89, -61, 29, -24, -8, -27, 5, 11, -4, -21, -14, 24, -18, -34, -87, -47, 49, 35, -23, 71, -4, 9, 75, -41, 31, 12, -27, 47, 48, -11, 79, -36, -13, -13, -24, -81, 22, -7, 48, 10, 68, 45, -32, -77, 60, -13, -26, 52, 19, -22, 7, -10, -31, -5, 42, 18, 18, 46, 22, 61, -51, 18, 24, 54, -27, 22, 60, -54, 52, -46, 22, -15, 33, 22, -45, -69, 39, -21, -90, 5, -2, -15, 20, 58, -32, -48, -48, 25, -81, -43, -13, 57, -2, -20, -21, 6, -36, -3, 60, -4, -28, 50, -7, 21, -66, 11, -12, -32, -20, -12, -109, -4, 30, -51, -39, -68, -64, -69, 19, 23, 21, -2, -58, -44, -51, 71, 35, -64, -13, -23, -18, -27, -36, -6, -63, -61, 27, 0, -48, -45, -64, -16, 3, -58, 8, -59, -20, -86, -50, -93, -9, -39, 20, -27, -27, -52, -104, 27, -29, -63, -67, -38, -51, -44, -27, 41, -7, 41, -35, 35, -28, -52, -117, 1, 6, 57, 17, -15, -77, -67, 6, -42, -33, -69, 34, 40, -11, -10, 30, 20, -55, 11, -20, 37, -56, -19, -5, -22, -52, 62, -11, 64, 21, 37, -27, 21, -37, -29, -2, 11, 43, 34, -21, -58, 31, 33, -3, -10, 58, -30, 51, 9, 41, -6, 37, -60, -59, -78, -40, 25, 81, -15, 49, -62, 57, 19, -13, -14, -87, -36, -8, 32, 29, -23, 56, 5, 36, 2, -49, -35, -6, -60, 34, 59, 16, 31, -38, 4, 69, -58, 3, -15, 17, 45, -45, -6, -16, -3, 27, -35, -111, -16, 30, 8, 4, 9, 11, 7, -58, 21, -63, 18, -41, 7, -8, -60, -22, 26, -39, 35, -36, -77, -67, -21, -81, -51, -87, -15, -2, -65, -13, -75, -86, -105, 9, 33, 7, -2, -73, -57, -59, -60, -61, -58, -9, 20, -9, -46, -62, -80, -68, 6, -64, 11, -9, -22, -45, -10, -104, -44, 45, 32, -98, 6, 3, -57, -53, -18, -76, -28, -2, -38, 36, 54, -92, 54, -32, 44, -38, 21, -56, -68, -16, 26, -15, -6, 12, 58, -6, 27, -51, -53, -50, 26, 44, 35, 26, -29, -39, -33, 2, -17, -42, -82, 41, -68, -65, -25, -14, 61, -44, 22, -28, 49, -3, -59, -14, -23, -62, 62, -23, 38, -49, -26, -44, 1, 2, -48, 32, -32, 38, 5, -31, 42, -1, -50, -55, 40, -71, -10, 26, -8, 0, 16, 34, 48, -41, 50, 44, -29, 45, -18, -48, -63, 42, 40, 39, -2, -7, -46, -19, -5, -39, 53, -58, -28, 50, -14, 13, -16, -1, 3, 30, -45, -65, 58, -67, -14, -4, -6, 63, 13, 42, 35, -12, -63, -79, -33, 58, 18, -11, -2, -56, -1, -17, 2, -32, -2, -19, -36, -4, -7, 22, 40, 62, 71, -33, 10, -29, -76, -84, -58, 25, -7, 23, 9, -12, -41, -20, 6, -12, 10, 39, -6, 11, 6, 30, 57, -26, 22, 52, -12, -36, -17, 15, 15, -41, -10, 44, 62, -44, -74, 40, 5, 7, -4, -38, 58, -9, 60, -15, 24, 22, -28, -85, -66, -78, 2, 56, -12, 15, -51, 33, -40, 61, -47, -54, -46, 36, 14, 10, -29, 11, -88, -15, 33, 18, -31, -46, -64, -65, -3, -61, 13, -29, 11, -5, -40, 20, -78, 27, 43, 32, 44, -3, -31, 27, 14, -16, 39, 47, 63, 29, -56, -62, -36, -73, 41, 9, -91, 14, 46, -26, 60, -25, -16, -81, -31, -15, 52, -6, -88, -29, -24, -17, 32, -15, -16, -4, 66, -64, 7, -18, -35, -18, -1, -48, -53, -72, 40, -25, 4, 51, -13, -31, 22, -28, -25, 57, -20, -1, -18, -66, -10, 54, -55, 46, -69, 57, -117, 44, -38, 30, -42, -26, 62, -43, 22, 40, -56, 7, 47, -61, -63, -43, 32, -2, 0, 68, -4, -5, 61, 6, -2, 29, -33, 63, 51, 33, 39, 31, -47, -54, 40, 18, 26, -2, 25, 4, 70, -46, -19, -76, 39, -5, 2, -19, -18, 21, 21, -18, 5, 60, -15, 47, -22, 7, -4, 58, -2, 8, -22, -31, -32, 19, 53, 9, -41, 23, -38, 90, 73, 31, -79, 15, -32, -17, -46, 22, -28, -35, 18, -32, 43, 22, -57, -14, 37, -36, 73, 5, -24, -20, 30, 42, 13, -41, 24, 29, 16, -30, -13, 61, -18, 44, -22, -46, 39, -11, 15, 6, 20, 28, -36, -37, 14, -32, -3, -6, 15, 8, -35, -33, -44, 23, 20, 2, -32, -18, 55, -36, 2, 35, -13, -43, 52, 77, 34, 16, -29, -30, 9, -15, 1, 17, -54, 71, -35, -44, -72, 42, 29, -12, -39, -3, 71, -33, 26, 78, -84, 9, -41, 60, 4, -31, 11, -26, -42, 66, -19, -26, -2, 48, -22, 86, -41, 35, -59, 2, -22, 31, 21, -9, -43, -75, -86, 78, -53, -9, 38, 23, 8, 14, 14, 47, 30, -18, 70, 64, 68, -39, -65, 48, -53, 28, -50, -29, -32, -12, -8, 30, -39, -3, -12, 10, 49, 18, 43, -45, 42, -23, 1, 45, -4, -29, -35, 2, -7, 55, 52, 63, -20, -97, -71, -25, 31, -49, -33, -38, 9, 29, 46, 2, 6, 31, -23, 1, 56, 59, -47, 20, -39, 33, -55, -37, -44, -48, 4, -21, -30, -9, 85, 28, 44, 44, 20, -68, 2, 24, 24, 12, -37, -66, 56, -86, 18, -54, -18, -88, 0, -14, 14, 35, -62, 24, -16, 56, -31, -28, 12, 13, 7, 65, -28, 29, -17, -108, 8, -38, 41, 54, 33, 15, 4, -82, 0, -17, -17, 66, -1, -34, -46, 34, -91, -14, -26, -74, 27, 23, -48, 22, 1, 19, 35, -9, -8, 0, -1, -4, -25, -59, 4, 43, -51, -55, -11, -53, -59, -25, 41, 42, 20, 10, -52, 36, -24, -20, -25, -57, 63, 62, -76, 59, 57, 67, 29, 35, -10, 3, 28, -43, -88, 11, -25, -42, -2, 13, -55, 59, -22, -24, 32, 57, -53, 60, -43, -77, -43, -20, 20, -64, -23, 60, 1, -4, 47, 2, -9, 53, 39, 55, 26, -97, -43, 2, 18, 40, -14, -16, 7, -76, 41, -24, -51, -59, -39, -7, 29, -8, -45, -4, -39, -4, -1, -38, 21, -50, 40, -13, 24, -28, -33, -42, 37, -38, 49, 6, -57, -42, -61, -52, 6, -101, -50, -35, -42, 51, -32, -17, 26, 44, -65, -26, -11, 16, -52, -2, 1, 49, -17, 35, 12, -54, -30, -53, -44, -41, 59, -39, 48, -4, -15, -65, -52, 10, -14, -66, -54, -33, 37, -16, -60, 15, -62, 22, -43, -31, -5, 31, 24, -45, -36, -74, 7, -25, 64, -52, -15, -41, -26, -41, 61, -61, -21, 59, -7, -22, 36, 62, 37, 66, 20, 21, -42, 37, -19, 17, 6, 47, 43, -33, -90, 62, -44, -45, 39, 21, -40, -10, 29, -18, 75, -4, 55, 41, -14, 65, 43, 8, 12, -3, -36, 30, -40, -21, -23, -26, 0, 14, 3, 17, -67, -28, 16, -6, -21, -51, 80, -51, 3, 29, -21, 21, -16, -24, 45, -43, -40, -2, -32, 35, 37, -87, 24, -1, -43, 23, -25, 68, -23, -32, -80, -73, -22, 30, -85, -73, -57, 36, 51, -16, 64, 2, 42, -62, -18, 81, -63, -28, 49, 48, 30, -41, -61, -93, 29, -19, 64, 17, 3, 18, 5, 14, 1, -37, 6, 25, -47, -19, 50, -1, 2, -11, 8, -42, 4, -87, -81, -50, 1, 33, 19, -63, 24, -77, 61, -26, 25, -17, 47, 6, 16, 18, -60, 1, -65, 36, -39, 44, -51, -14, -6, -39, -16, -53, 29, 6, 8, -74, -52, 2, -9, 33, -65, -71, 17, 17, 42, -9, 42, 39, -33, 1, -11, -36, 15, 36, -61, -22, -65, 17, 84, 17, 5, -32, -12, -40, 12, -66, 5, -61, -25, 5, 13, -43, -38, -66, -15, 26, -56, -59, -39, 44, -85, -73, 58, -12, 35, 45, -59, 22, -43, 23, -37, -9, 39, 27, -21, 15, -3, -16, 22, -31, -18, -20, 28, 44, -51, 45, 24, -20, 19, 75, 33, 48, -11, -56, -50, -63, 1, 10, 1, 23, -12, 47, -104, -44, -44, 3, 31, -15, 61, 1, 58, 63, 27, -8, -2, 44, 1, -3, -20, -14, -44, -44, -38, -3, -42, 12, -3, -61, -76, -40, 20, 22, -26, -69, -53, 53, -6, 17, 43, 46, -42, -38, 46, -74, -12, -78, 14, -22, -26, -55, 15, 59, 58, -49, 43, -14, 60, 11, 44, -27, 1, 24, -30, -12, 55, -51, 17, 31, 58, 19, 30, 31, -18, 6, -58, -92, -48, 32, 30, 33, -3, 24, 37, -69, 17, 19, 1, 51, 37, -67, -28, 69, -37, 52, 27, -12, 23, -56, -17, -13, -28, 37, 37, -39, -5, 1, 78, -54, -9, -70, 58, 48, 2, 32, -41, 30, -57, 5, 21, 47, -22, 3, 24, 56, 46, 26, -45, 50, 20, -7, -15, 17, 64, 11, 4, 35, 72, 45, -40, -35, 22, -103, 45, -21, -43, 2, -23, -35, -4, 38, 27, 26, -65, -60, 14, 37, -33, 61, -16, 90, -31, -48, -51, 9, 52, -46, -71, -11, 50, -17, 29, 24, 30, -34, -55, -14, -13, 73, 54, -6, 11, -55, 63, -25, -11, -7, 23, -34, -16, -45, -14, -33, 60, -19, 12, 47, -25, 23, 12, 46, -11, -20, -29, -28, -57, 13, 42, 2, 20, -39, 54, -92, -23, -38, -70, 0, -62, -21, -35, 10, 1, 65, -41, -64, 21, -44, -28, 37, 2, -53, -34, 75, -11, 37, -35, -3, -31, -58, -7, 40, 25, -13, 44, -20, 39, -119, -45, -23, 31, -39, 56, -27, -47, -28, -45, -9, -51, 64, -31, 48, -39, -7, -10, 17, 76, -35, 29, -93, -31, 20, -58, 77, 38, -39, -21, -20, 6, -58, 9, -19, -56, 16, 38, -4, -33, 61, 42, 42, 5, -12, -91, 60, 55, -15, 22, 20, -19, 3, -7, 43, -34, 15, 50, -15, -30, -24, 26, 20, 55, -42, 0, 28, 7, -84, -4, 72, 23, 27, 13, -25, -68, 63, -78, -44, -14, -50, -72, -46, 17, 22, 48, -11, -23, 12, 5, 9, 4, -32, -12, 9, -15, -81, -37, 59, 39, -38, -26, 29, 60, -34, 64, -20, -68, -23, -76, -16, 67, -15, 33, 67, 27, -19, 62, -96, 7, -39, -39, -7, 62, -34, -37, -99, -62, -3, -1, 1, 34, -15, 44, -15, 34, -54, -50, -95, 58, 66, -19, -30, 15, 33, -4, -18, 51, 5, 28, -68, -58, 19, 36, -8, -30, 17, 22, -44, -29, -16, -32, -44, 15, -78, 11, 14, -29, 34, -26, -93, -101, 17, -79, 48, -41, -1, -37, 39, -48, -101, 26, -44, -9, 13, 7, 63, 18, -7, 21, -56, 51, -42, 15, 36, -60, -91, 24, -56, -5, 39, 21, -68, -16, -56, -25, -35, -47, 9, -22, -10, -2, -41, -12, -54, -47, -117, 45, 58, 41, 44, -14, -10, 32, 13, 57, -40, -74, 52, -20, -13, -31, 58, -22, -47, -36, 0, -23, -22, 25, -33, 36, -35, 56, -41, 26, -29, 78, -96, 33, -35, -64, -51, 27, 35, 21, -15, -63, 54, -25, -37, 5, 75, -60, -53, 76, -66, 19, 63, -102, 18, -51, -23, -20, -11, 55, -33, 39, 36, 24, 19, -41, 37, 14, 13, -7, 48, 55, 44, -55, 28, 60, -50, -2, -32, 57, -10, -30, -13, -3, 25, 22, -28, -48, 44, 29, 61, 76, 58, 16, -3, 55, -37, 26, 54, -15, -35, -8, -41, -38, -83, -19, 28, -41, 5, -62, -52, -91, 20, -27, -7, 27, 43, -46, -47, -39, 2, 22, 56, -39, -11, 10, -55, 68, -69, 26, -62, -26, -72, 32, 4, 59, 16, -17, 25, 39, 24, 6, -2, -36, 58, -67, -74, 28, 57, 26, 13, 11, -57, 18, -3, 7, -64, -7, 30, 52, 29, 10, -75, -37, 35, 7, -38, -45, -33, -74, -57, -13, 62, -20, -60, -13, -65, -4, -28, 47, 15, -93, -27, -70, -31, -14, -55, -29, 7, 39, -28, 29, 1, 33, -16, 37, 19, -58, 61, 0, -11, -47, -5, 23, 19, 23, -2, -2, 6, -68, -12, 26, -1, -27, -41, 33, -59, -64, -70, -46, -80, 32, -68, -14, -22, 58, 36, -2, 42, -49, 21, -41, 17, -42, 33, -24, 15, -21, 43, -53, 30, -45, -14, -46, -15, -64, -20, 8, 10, -23, 28, 15, -45, 22, -73, -6, 16, -23, -68, 1, -9, -80, -15, -2, 23, 10, -2, -7, -10, 7, 9, -89, 7, -72, 47, -16, -33, -23, 20, 73, 48, 25, 9, -43, -64, -5, -32, -18, -7, 39, 1, 11, 75, -41, -95, -22, -79, -23, -23, -7, -64, 11, 3, -38, 14, 13, 5, 0, 60, -62, -1, 21, 70, 27, 32, 71, 8, 22, -65, -61, -39, 50, 13, 33, -14, 23, 15, -6, -2, 50, -6, -33, -32, -11, -18, -5, -21, -30, -53, -69, -38, 10, 22, 36, 56, -12, -60, -4, 31, -68, -119, -41, -82, -12, -49, -40, -34, 19, 36, 35, -81, 42, 13, 18, -83, 0, 67, 49, 37, -41, 28, -76, 23, -59, 47, 27, -45, -60, -10, -67, -39, -56, -74, -61, -41, 44, -38, 44, -11, -41, 35, 29, 11, 41, 37, -36, 46, 22, 22, 14, -54, -39, -33, -14, -13, -6, -33, 20, -19, 29, 69, 29, -46, -12, 7, -61, -62, 31, 27, 53, 2, -27, -4, 55, 7, -41, -13, -48, 5, 79, 2, -47, -15, -8, 7, 49, 21, -14, -51, 12, 22, 58, 28, 11, -1, 67, -63, -37, -38, -53, 64, -39, 56, -28, -90, -3, -15, 76, -24, -5, -91, 53, -8, 29, 66, 32, -41, -64, 72, -67, -45, -37, 13, -12, -46, 5, 58, 59, 44, -7, -29, 18, 45, 32, -38, -27, 5, 52, -48, 30, -36, -63, 49, -39, 2, 30, 65, 42, 6, 6, -36, -2, 73, -17, 48, -15, 27, -34, -52, 52, 48, 23, 11, 5, 53, -37, 21, 14, -17, -37, 22, 44, -26, -4, -7, -29, -91, -27, 62, 1, -51, -24, -30, -40, 75, 45, 13, 11, 17, -35, 2, -24, -28, 0, -18, 35, 52, -72, -19, -54, -64, 48, -85, -48, 35, -57, 16, 61, -27, -25, 6, 27, 39, -91, -7, -68, -16, 29, 7, -21, -23, 29, 3, -19, 8, -23, -7, -60, 62, -52, -17, 63, 20, 3, -72, -9, 53, -23, -82, -27, -9, 62, -56, 4, -23, -8, -59, 18, 14, -60, 27, -2, 54, 31, -25, -24, -54, 53, -11, -6, -18, -27, -5, 59, -36, 31, -2, 71, 32, -57, -33, -60, 34, 32, -24, -57, 16, -51, 4, -34, 53, -42, -59, -3, 17, 40, 11, 26, -54, -21, -37, -52, -30, -27, 27, 56, 44, 50, -4, 46, -43, -70, -49, -32, -22, -32, 47, 76, -63, -15, 69, -106, -20, 27, -7, -7, 11, 6, -63, -1, -62, 11, 2, -4, 30, -65, -12, 26, 34, -12, -42, -73, 32, -47, -31, -20, -35, 44, 27, -19, 3, -24, 55, -23, 16, 68, -28, 27, 1, -56, 34, 70, -18, 53, -47, -51, 46, -9, 38, -19, -10, -39, -44, -58, -39, -26, 41, -56, -66, 22, 32, -68, -46, 6, 51, -114, 46, 55, 25, 25, -31, 55, 31, -14, -27, -14, -38, -37, -64, -71, 46, -44, 9, -3, -60, -12, 42, -35, -96, 70, 46, -88, 16, 52, 6, -64, -48, -11, 12, 13, 11, -18, -20, -77, -43, -2, 55, -20, -50, 15, 1, -38, 23, 12, 61, -25, -28, 5, 62, 7, 33, -13, 26, 28, 62, -40, -63, 49, -62, -59, 24, -31, 2, -30, -26, 7, -24, -41, -94, -70, 46, -18, -18, 65, 15, 44, 71, 35, -22, -5, -41, 42, 41, -8, 4, 33, 8, -51, 22, 67, 59, -20, -23, 16, -55, 71, -40, 51, -62, 79, -43, 35, 50, 0, 37, -79, 73, -13, 46, -27, 19, 3, 50, -56, 4, -46, 5, 45, 6, 26, -22, 67, 23, 59, -58, 21, -36, 51, 10, 16, 19, 22, 8, -18, -28, -34, 23, -68, -20, -5, -45, -3, 66, -55, 29, -31, 92, -51, 3, -17, 1, 16, -34, -44, -40, -29, 22, -62, 41, -13, -21, 14, -26, -3, -31, -10, -9, 45, -3, -28, -8, -46, 21, -59, -54, -47, 0, 48, -22, -19, -72, -64, 46, 34, -69, 39, -69, -6, -22, 64, -56, 59, -48, 0, 32, -34, -37, -38, -19, -49, 21, -8, 35, 34, 29, -43, -28, 21, 14, -18, -27, -53, -77, 71, 13, -40, 10, 36, -22, 21, -58, 24, -17, -17, -52, -2, -31, -19, 11, -15, -18, -8, 19, -6, 15, -81, 23, 3, 25, 8, -59, -50, 71, 56, 3, -74, 3, -9, -59, 29, 20, -37, 49, 44, 32, -61, -28, 39, -46, 10, 41, -34, -85, -55, 45, 69, 59, 7, -21, -38, 25, 14, -28, 79, 1, -61, 23, -42, 47, -37, 28, -39, -23, 46, 42, 53, -24, -62, -8, 20, -70, -64, 5, 13, -5, 36, -59, -46, -60, -30, -25, -8, -44, -46, -27, 70, 4, 6, -35, -19, -56, -39, -34, -73, 6, -19, -45, -33, 67, -59, 19, 53, 21, 35, -67, 0, -4, 38, 45, -71, -29, 74, 2, -38, -36, -53, 35, -19, -86, -72, -11, -63, -58, -49, -85, 1, -65, 35, 48, 30, -40, -50, -51, -29, -74, -32, -108, -102, 6, 31, 44, -46, -36, -65, -75, -52, -77, -50, 14, 32, -57, 29, -17, -96, 7, -72, 6, -40, 36, 28, 0, -62, 7, 10, 7, 39, -53, 46, 5, 20, -40, -5, 0, 36, -15, -12, -32, -2, -2, -27, -23, -68, -30, 47, -13, 12, -30, -56, 46, 59, 55, -16, -64, 5, -32, -14, -35, 3, -27, -65, 13, -77, -84, -16, 32, 18, -74, -57, 13, -41, 4, 52, -7, 21, 19, -6, -7, -80, 26, 60, 52, -7, 2, -10, 47, -5, -47, -56, 40, -43, 5, -17, -25, 25, 44, -25, 47, 78, 37, -39, 49, 56, 8, -25, 6, 12, -23, -35, 45, -52, 35, 74, 64, 22, 64, 1, 20, 32, 42, 32, 51, 10, -28, 38, -40, -29, 46, 1, 76, 64, -12, 52, 23, -7, 7, -14, -12, 65, -13, 21, 58, 66, 1, -36, 34, -35, 46, -17, -1, 16, 39, 60, 30, 37, 52, 57, -61, -46, 1, 30, 60, 24, 77, 41, 29, -32, -30, -18, 22, -16, -43, 9, 66, 25, 37, 58, -42, -27, -31, -7, -12, -17, -2, -9, 56, -9, 8, -39, -69, -23, 12, -10, 28, 44, 65, 8, -1, -47, 21, 43, 53, 79, -22, 55, 0, -85, -49, -51, 72, 60, 37, 68, -41, -39, -26, -8, -1, 71, 72, 70, -65, 23, 5, 20, 13, -28, -21, -28, -60, 41, 37, 3, -49, 37, -16, 35, -33, -33, 13, 53, -37, 29, -20, -11, -59, 61, -26, -21, 2, -19, -39, 5, -29, 29, 18, -56, 26, -15, -28, -51, 23, -22, -66, 44, 5, 61, 86, 49, 74, -25, -28, 32, -14, -12, 51, 18, -17, -53, -8, -1, 28, 8, 58, -7, 31, 31, -7, -1, 40, -26, -14, -82, -17, 48, 2, 10, -20, 83, -7, 35, 87, 29, 29, -6, 56, 7, -6, 20, -13, -19, 81, -19, 41, 30, 25, -8, 71, -45, 54, 37, -42, 20, -7, -6, -45, -46, 12, 12, 12, 98, 27, 56, 33, -35, -22, -50, -48, 28, -1, -39, 25, 16, -36, 20, 24, 22, 45, -14, 36, 3, 68, -44, -25, 97, 19, -54, -22, 43, -7, -47, 61, 78, -22, 32, 10, -66, -21, 52, -18, -43, 67, -25, -34, 46, 49, 83, -49, 5, 45, -71, 24, 3, 0, -35, 25, 30, 41, -80, 6, 14, 41, -24, 16, 12, 31, -37, 15, -95, -18, -25, 8, -19, 34, -46, -10, 52, -11, 15, 6, -1, 52, -17, 6, -54, -49, -1, -4, -29, -8, -55, -16, 47, -23, 21, -36, 58, -68, -54, 6, -5, 38, 37, 1, -45, -47, -34, -4, -4, -9, 48, -34, 12, -7, 31, 43, -19, 45, 42, -54, -21, -75, 2, -28, 21, -51, -16, -57, -5, -6, -1, -32, -88, -67, -68, -16, -65, 38, 24, 14, -11, 6, 64, -21, 34, 0, 38, -11, 26, 2, 28, -17, 50, -1, -29, -10, -38, -73, -53, -47, 8, 29, -26, 65, 52, -47, -20, -61, -42, -10, -86, 43, -52, 50, -52, 49, -24, -60, -26, 14, -42, -27, -23, 62, -50, 2, 3, 74, 57, 18, -40, 24, 27, 11, -34, 1, -38, 11, 50, -59, -46, -43, 7, 51, 50, 17, -1, 37, 12, -29, 18, -47, -13, -27, 59, -35, -3, 37, -53, -9, -1, 89, -11, 15, -13, 57, -35, -30, -77, 75, 48, 52, 48, -58, 4, 58, 65, 40, 7, 57, -36, 19, 14, 65, 5, -1, -55, 53, 35, 6, 18, 13, -28, -47, 30, 56, -10, 100, 23, -32, -102, 47, -20, 69, 17, 4, 81, 38, -19, 7, 68, 24, 30, 83, 4, 36, 11, -27, -50, -43, 34, -15, -58, 1, -3, -23, -1, 11, -32, 39, -58, 31, 35, 49, -11, 58, -39, -19, 85, 28, -3, -28, -34, -39, -21, 40, 31, 19, 11, -28, -53, 4, 64, -20, -15, -17, 43, -39, -74, 35, 6, -52, -18, 58, 20, -48, -35, -57, 51, -42, 77, 44, 34, 76, -2, -30, -77, -15, -13, -53, -24, -34, 52, 38, 4, 49, -67, 16, 25, -37, -7, 6, 40, 9, 8, 71, -5, -4, 18, 13, 78, 11, 5, 36, 38, 27, -48, -2, -52, 15, -39, 16, -28, 62, -32, -49, -5, -20, -3, 42, 38, -43, -37, -10, 34, -30, 17, 9, 25, -46, -87, -2, 39, -53, -91, -18, -57, 31, -56, -18, -73, 6, -19, -58, -48, 5, -45, 23, 9, 29, 21, 24, -47, 37, -30, -12, -11, -11, 43, -72, -33, 19, -11, 43, -15, 68, -78, 0, -9, -36, 10, -45, -34, 9, -38, -6, 47, -64, 55, 33, 23, 23, -31, -41, 39, -19, -33, -58, -62, -50, -70, 15, 0, -46, 45, -46, -109, -50, -94, -62, -33, -72, -74, 28, 0, -32, -43, -60, -44, -39, 18, 20, 43, 53, 40, -35, -55, 42, -32, 35, -47, -6, 29, -85, 12, 19, 55, -45, -37, 30, -48, 25, -34, -27, 27, -26, 45, -20, 14, -80, 46, -23, 14, 22, -3, -8, 41, -6, 37, 58, -10, 21, 47, 72, 55, 46, -19, -26, -42, -2, -12, -15, -29, -39, 18, -11, -17, 28, 0, -36, -41, -22, -21, 44, 21, -66, 93, 9, -37, 38, 20, -57, 15, 14, -3, -52, 45, -21, 22, -44, 41, -5, -67, -36, 54, 37, 60, 65, -13, 53, 48, 80, 20, -80, -52, 80, -4, -38, 27, 22, -27, -33, 27, -23, -59, 11, 84, -106, -45, -16, -23, 44, -44, 80, -59, -7, 80, -12, -13, 61, 10, -10, 15, -34, 9, -99, -18, 61, -40, 33, 96, -15, 44, -1, 53, -46, 48, -20, 67, -40, -6, 83, 21, -38, -17, -41, -15, -9, 34, 44, -26, -6, -32, -18, 47, 22, 43, -64, 63, -51, -43, 13, -26, -22, -16, 47, 20, 45, 92, 85, 27, 20, 10, 28, 79, 61, -21, -12, 29, -27, -7, 69, -19, -17, -61, 21, 19, 56, -34, 5, -37, 16, -44, -9, -13, -44, 9, 41, -27, 40, 91, -21, 77, -39, -44, 55, -48, -3, -42, 68, -22, -57, 67, 36, -45, 55, -36, 43, 35, -17, 18, -38, -43, 26, -14, -10, -19, 23, -48, 63, -10, 23, -2, 1, 61, 66, -9, -28, -71, -34, 30, -12, 21, -33, 3, -4, -46, 41, -40, -48, -71, -11, 5, 19, 1, -57, -48, -2, -3, 39, -14, -84, -25, -50, 51, -33, -26, -13, -15, 35, -33, 8, 55, 51, 15, 6, 4, 30, 18, 47, -31, -1, -56, -51, -25, -29, -62, 0, -62, 56, 5, -51, -49, -61, -26, -40, 28, 7, 60, 46, -72, 55, -39, 9, -42, -34, -72, -84, 92, 23, 26, 28, 64, 63, 3, -53, -39, 18, -54, 26, 8, 16, -22, 3, 34, -8, -16, -67, -34, -18, 81, -27, 41, 48, -28, -59, 11, 7, -27, 3, -18, 19, -36, 23, -33, -2, 6, 22, -3, -14, 40, -36, 57, -59, 86, -59, 41, 24, 53, -15, -12, -28, -2, -31, 2, 22, -12, -83, 10, -79, -59, 22, -42, -18, -14, -44, -60, -73, 40, -5, 32, 9, -29, -52, 40, 16, 42, 33, -7, -23, 26, -2, 10, -1, 60, -12, -22, 42, -16, -69, 38, -61, -54, -42, 7, 43, -19, 15, -68, -66, -95, -13, -67, 66, -72, -61, -56, 22, 2, 13, -36, -74, 40, 37, -42, 19, 65, 5, -28, 29, 41, -13, 28, 52, -4, 7, 80, 20, -7, -69, 30, -5, -64, 63, 32, 42, -19, -17, -42, 56, 59, -89, 28, 69, 55, -85, -7, -43, 24, -17, 50, -6, -9, -29, -36, 37, -50, 31, -72, 17, -21, -51, 6, -40, -71, -19, -58, -1, -40, -3, 28, -46, 74, -28, 20, -54, -18, 38, -24, -28, -28, 52, -53, 61, 54, 31, 3, 3, -33, 36, 26, -45, -15, 30, 10, 48, -50, -46, -32, -70, 18, -41, 32, -9, 31, 48, 39, -69, -10, 1, -28, 21, 58, 50, 2, 59, 24, 70, 10, 67, -37, -44, 85, 39, -35, 2, 12, 43, -14, 22, 46, 26, 9, 26, -15, 11, 77, -23, -7, -30, 40, 19, 39, 40, 76, 2, 33, -27, -96, 34, 64, 21, -27, 14, 8, 48, -30, 14, -12, -12, -6, 57, -42, -54, 25, 63, 43, 39, -19, -24, 6, 51, -10, -36, -65, -15, -24, 41, -3, 15, 32, -59, -47, 35, 44, -14, 66, -21, 37, -34, -35, -61, -50, 30, 1, 43, -60, -57, 38, 28, -16, 24, 21, 40, 40, -41, -60, -55, -35, -82, 25, -49, 10, -46, -33, 17, -48, -78, -15, -69, 7, 34, -71, -8, -53, -44, -71, -52, -46, -29, 30, -23, -43, -5, -22, 87, -46, 14, 23, 22, -46, 4, 42, -3, -3, 18, -19, 6, 17, -9, 32, -78, 16, 43, -41, 7, 2, 60, 63, 71, 45, 32, -72, 40, -100, 56, 4, -21, 55, 3, -28, -14, 7, 16, 54, -33, 51, -17, -26, -47, 58, 11, -59, -49, -45, 62, -30, 55, 69, -6, -40, 11, -23, 75, -51, 68, -9, 16, 51, -57, -11, -37, -16, 55, -26, 69, -7, 44, 7, 31, 47, 25, 71, 76, -20, 27, 9, -34, 43, 52, 9, 32, 28, -9, 7, 72, -14, 45, -20, -27, -50, -28, 29, -70, -13, -19, 28, 38, -34, -59, -9, 62, -7, -47, -5, 29, -22, 32, 5, -4, 45, -24, 54, -34, 13, 42, -42, -16, -54, -31, 13, 8, 38, -59, -48, -76, 33, 28, 5, -2, -38, -63, 12, -6, 30, 3, 12, 49, 50, -56, 34, -40, -6, 21, -61, -10, -31, 29, -33, 1, 9, 17, -33, 8, -46, -35, 41, 11, -54, -31, -15, 8, 45, -59, 41, 6, -60, -42, -68, -50, -14, 29, -63, 18, -49, -61, 49, -73, 44, -33, -31, -62, -56, 19, 60, 28, -11, -39, 13, -89, -20, -56, 72, -95, -28, -37, 3, -72, -38, 19, -64, 17, 13, 42, -62, -2, -73, 17, -11, -15, -36, 49, -89, -12, -33, 45, 75, -15, -40, -25, -53, -51, -11, 9, -30, -38, 13, 30, 76, 41, -6, -18, -22, 61, 67, 29, -49, -42, -73, 14, -46, -28, -40, -53, -49, -75, -58, -30, -40, 31, -19, 8, -58, 34, -26, 42, 48, 13, -16, -41, 3, -13, -6, 40, 71, -15, -11, 36, 55, 44, -82, 28, -60, 37, -49, 82, -47, -87, -51, -50, -55, 61, -66, 28, -49, 15, -21, 54, -55, -48, -65, 7, -58, -62, -31, 7, -38, 19, 25, -36, 23, -10, 20, -63, -66, -25, -76, 36, 16, -46, 48, 42, -31, -40, -33, 17, -13, 71, -74, 55, 39, -45, 22, 26, -90, 34, -5, 51, -10, -56, 16, 6, 14, -50, 63, 33, 16, 55, -42, -19, 35, 56, -62, 5, -10, 11, 37, 35, -13, 39, -58, -74, 0, 5, 16, -67, -44, 11, 33, -37, 17, -66, -55, -49, -58, -17, 72, -10, -5, -2, 31, -2, -32, -21, 42, 32, -22, -7, 59, -42, -20, -40, -91, 2, -51, 7, -56, 59, -34, 31, 65, 40, 6, 1, 25, 19, 31, -37, -24, -37, -18, 24, -38, 15, 17, -24, 22, -58, -18, 2, -9, -63, -8, -49, -29, 9, 14, -39, -64, 12, -43, 7, 24, -4, 12, 31, 87, 3, -9, -29, 65, -49, -78, -31, 30, -36, -7, 19, 23, -19, -14, 3, 6, -29, -53, -29, -3, -69, -72, -94, -55, -18, -75, -19, 50, 0, -26, 36, -94, 22, 10, -22, -14, -10, 1, -51, 11, -63, -116, 3, -21, 15, -63, 21, -14, 30, 22, 22, 36, -56, -76, 14, 41, 51, -4, -28, -82, -83, -53, -60, -89, -9, 3, -36, 25, -30, -51, 41, 20, -9, -74, 13, 18, -38, 25, -10, -60, -33, -31, 2, -30, -6, 51, -41, -64, 32, -38, -62, -35, 27, 46, -83, 39, 23, -34, -67, -35, -18, -1, 36, -83, 20, -32, -21, 44, -48, 84, -34, 32, -78, -56, -8, -17, 7, 75, 67, 24, 59, -102, 43, -46, 33, 3, -39, 46, -29, 34, 19, 44, 8, 40, -12, -79, -61, 47, 42, -61, -27, 21, -63, -11, -23, 42, -69, -9, -64, 77, -9, 2, -83, 10, -45, -66, -15, 27, -29, -16, 13, -77, -17, -66, -1, 32, 46, -40, -79, -41, -83, 50, -64, 40, -14, 15, -10, 62, -115, 1, -26, 87, -42, 58, 6, -51, -6, 22, 35, 7, -40, 50, 5, 9, 43, 1, -2, -34, 32, -3, -31, -10, 16, -36, -18, 83, 26, 22, 24, 62, 10, 11, -53, -31, -12, -79, -62, 42, -33, 47, -51, 37, 3, -1, 26, -75, 29, 7, 18, -58, 61, -11, -17, -47, 24, 3, 2, 44, -48, -40, 28, -41, 68, -58, -27, -2, -28, 29, -65, -7, -65, -17, 4, 46, 3, -6, -50, -27, -36, -47, 0, -38, 2, -38, 22, -23, 26, 49, -26, 41, -44, 2, 9, 45, -17, -44, -2, -24, -45, 8, 27, 81, 36, -32, 36, 38, -41, -62, -80, -5, -87, -16, -10, -55, 6, -84, -27, 27, 18, -7, 49, 22, 1, -23, 55, 23, 14, 12, -43, -66, -83, 25, 27, 13, 32, 26, 50, 38, 55, -14, -17, -9, -40, -48, 9, -9, -29, -66, 66, -65, -23, 45, -59, 50, 56, 9, 25, -43, 48, -47, 50, 16, -31, 53, 82, -56, -41, 13, -32, -14, -12, 44, 27, -18, -4, -54, 14, 37, -49, -28, 4, -89, -10, 8, -40, -1, 86, -30, -9, 33, -33, -31, -4, 59, -18, -27, 85, -72, 47, 51, 53, 85, 47, -13, -30, 54, 64, -39, -14, 77, 55, -11, -28, 95, 59, 11, -20, -54, -41, 55, -32, 37, -35, 59, -37, -49, 86, -21, 85, 3, 16, 25, 55, -15, -2, -20, 44, -16, 21, 66, -10, -19, 21, -9, 27, -50, -101, 1, 12, -15, 13, -3, 43, 24, 19, -10, -55, -67, 54, -19, 65, 2, -67, 22, -48, -61, -9, -39, -9, -47, 12, 46, 12, -23, 15, -46, -7, 45, 53, -27, 63, -1, -31, 21, -5, 58, 37, 21, 59, -27, 1, 17, -38, -48, 23, 50, 40, -17, 43, -3, -35, 8, -20, 50, -20, 50, 31, -52, -16, 16, -47, -25, -15, -34, -31, -2, 71, 20, 38, -35, -4, -22, 14, 43, 15, -67, -35, 0, 50, 19, -63, -92, 39, 57, -50, -9, -21, 10, -28, 57, -68, -39, -58, -37, -50, -46, -9, -60, 30, 44, -4, 5, -24, -71, 14, -36, -32, 39, -8, 4, 18, 60, -11, -21, 49, -43, 25, 45, 30, -59, 13, 49, 77, -12, -65, -29, 40, -10, -23, 43, -43, 1, -30, -63, 26, 0, 63, 54, -40, 21, 12, -44, 14, 62, 32, -53, 8, -35, 58, -13, -12, 45, 40, 8, -27, 7, 25, -4, -17, 33, 50, -16, 4, 13, -49, -50, 35, -17, -83, -46, -53, -51, 8, 27, -2, -23, -27, -57, 50, 46, -18, 10, 47, 17, -72, -52, -50, 12, -71, 25, -35, 48, 32, -70, -40, 34, -29, 21, 60, 38, 0, -50, -15, -57, 14, -61, -37, -47, -37, -20, -13, 38, 16, 16, -57, -18, -1, -20, -6, -1, -31, -34, -41, 54, 2, -50, 1, -12, 55, -43, 30, -12, 51, -74, -31, 34, -18, -46, -75, -55, -14, -61, 12, 46, 57, -5, -18, 27, 56, -20, 26, -75, -66, 45, 26, 80, 12, -27, -55, -61, 18, -53, -27, 35, -8, -60, 22, -52, -62, 47, -7, 11, 16, -43, 15, -57, 24, 9, -33, 23, 62, -5, -37, -16, 61, -56, -27, -14, -32, 56, -43, -49, -4, -11, -52, 52, 16, -38, -16, -115, -60, -1, -39, 4, 33, 4, 48, -70, -40, 37, -21, -9, 27, 32, -4, -32, 33, -31, 41, 85, -17, -92, 9, 50, 43, -103, -50, 44, -32, -13, -57, -27, -54, -48, -28, 44, -82, -9, -83, -21, 9, 52, -51, -57, 47, 28, -43, -81, -29, 2, -78, -7, -18, 14, -43, 22, 11, -34, -78, 8, -40, 3, -2, -44, -16, -67, 0, -85, 17, -59, 29, -11, -23, -15, -55, 50, -37, -64, 25, -25, -5, 43, -63, 23, -46, -52, 23, 36, -97, -54, 20, 3, -24, -81, -23, 17, -49, 4, -49, -89, -55, -2, -70, 40, -86, -26, 16, -79, 2, 42, -43, 7, -30, -1, -81, 65, -70, -48, -90, -40, -101, -77, -27, 33, -34, 26, -2, -61, -47, 20, -48, 3, 21, -19, -14, -40, 2, -6, -74, -23, -67, -49, 3, -9, 11, -17, -9, 42, -57, 23, -46, -57, -66, 2, 1, -52, -65, 17, -58, -75, -85, 26, 18, 1, -8, 11, 30, -3, -50, -29, 2, -25, -24, -26, -72, 3, -43, 40, -21, 79, -96, -45, -97, -7, -29, -3, -43, -4, 25, -45, 21, -62, -87, -75, -57, -53, -51, -52, -31, 13, -84, -62, 14, -54, -11, 5, -68, -54, 14, -58, 30, -28, -84, -57, 20, 5, 7, 28, -55, 12, -15, -20, 30, -34, -23, -91, -84, -85, -25, 20, -52, -35, -59, -21, -91, -57, -83, -91, -108, -40, -29, -48, -70, -41, 0, -44, -81, 52, -56, 42, 25, -4, 1, -20, 38, -6, -17, 26, -49, -99, 47, -62, 14, 20, -36, 30, 38, -42, -102, 24, -17, -22, -11, 16, -56, -23, -1, -44, -21, -21, -27, -35, -72, -33, -67, -17, 13, 50, -64, -68, -68, -23, 47, -19, -87, -59, -45, -79, -24, 23, -52, -12, -65, 11, -52, 45, -25, 1, 39, 19, 56, 34, -38, 28, -48, -26, -40, -34, -24, -55, 3, -19, -38, -29, 45, -55, -66, -12, 23, -21, 50, -49, -28, -26, 71, -24, 2, 27, 6, -12, 15, -67, 76, 51, 8, -42, 65, 75, 11, 38, 36, -50, 24, 20, 9, 67, 2, -10, -37, 29, 84, -115, -63, 11, -38, 10, 9, -19, -8, 47, 45, 74, 61, 8, -52, -3, 8, -51, 62, -18, 18, 62, 65, 5, -30, 49, 52, -33, -49, 62, -3, 47, -6, -25, -13, 38, 57, -19, 67, -84, -33, 48, -52, 7, -61, 7, -80, -49, -24, 59, 33, 31, 0, 49, -40, -96, 12, 51, 4, -25, 52, -6, 39, 20, -4, -9, 37, 12, -7, -65, -10, -7, 43, 55, -21, -37, -35, -59, 47, -12, -37, 17, -12, 79, -15, 25, -19, 27, 10, -11, -7, -60, -30, -39, -32, -8, 11, -15, 9, -14, -39, -70, -87, -12, -25, -74, 12, -6, 33, 42, -33, 17, -14, -28, 49, 67, 39, 6, 78, -40, 8, 39, -32, 28, 11, 37, -32, -54, 3, 13, 0, 19, 37, -89, 18, 69, 60, -57, 11, 42, -56, 56, -54, 34, -67, -83, -1, 62, -54, 20, -29, -58, 47, -49, -23, -26, -9, -31, -44, -2, 31, 2, 34, -31, -23, 15, -109, -36, 62, 30, 16, 21, 18, 46, 59, -39, -92, 53, -10, 5, 31, -59, 28, -62, -72, -56, 20, 2, -17, 37, 52, -4, -43, 3, 59, -1, 3, 12, -67, 23, -45, -41, 54, 39, -23, 23, -12, 60, -27, -17, 14, 29, -63, -16, -63, -63, -1, 36, 7, -72, 57, -64, -14, 22, 80, -24, -44, 39, 9, 3, -33, -66, 44, 57, -53, 74, -1, 30, -49, -21, 16, -97, -52, 89, -51, 5, -37, -15, 4, 36, -57, 5, -25, -30, 24, -20, 59, -16, 54, -14, 13, -60, -51, -47, -20, 24, -70, -28, -74, -43, 5, 28, -39, -23, -42, 78, -117, -2, 7, -24, -52, -10, -49, -92, -37, -19, 43, -79, -19, -57, -43, -33, 17, -89, -105, -32, 57, -19, -81, 5, -85, -75, 3, -51, -80, -51, -3, 57, -24, 2, 17, -71, -38, 18, 20, -51, -8, 23, -35, -4, -13, 21, 21, -30, 33, -52, -40, -89, 48, 10, 3, 75, -81, -32, -95, -53, -108, -38, 13, -9, -102, -47, -34, -30, -71, 5, 10, -71, -22, 11, -22, -68, 24, -21, 4, -68, -51, -22, -95, -17, -95, -58, 11, -21, 17, 46, -4, -23, -86, 14, -5, -7, -99, -1, -6, -11, 22, 10, -55, -55, -76, 66, 17, 25, 40, -7, -70, 29, 25, -61, -53, -51, 70, -8, -67, 69, -32, -28, -6, -60, -39, -38, 12, 65, -60, -17, -6, 2, -79, -29, -69, -45, 4, 4, 18, -24, 37, 26, 9, -53, -38, -68, -53, 17, 52, 8, 3, 27, -34, -4, 32, 32, 0, 46, -19, -25, -33, -87, -22, -1, -79, -78, 25, -4, -25, 5, -93, -5, -7, 35, 17, -75, -101, -39, 14, 10, -39, -47, 29, -68, -44, -14, -14, 40, 63, -46, -42, 19, -77, -57, -8, -71, -71, -2, 18, -18, -24, -7, -38, -5, -79, -81, -1, 34, -39, -3, 22, -18, -47, 35, 26, -57, -39, -73, 8, -37, 54, -74, -46, -29, -63, 21, -90, -32, -68, -41, -25, -60, 4, -27, -65, -56, -45, -64, -27, 0, -23, -29, -20, -7, 0, -58, 4, -52, -11, -47, -97, -43, 31, -84, -56, 20, -15, -85, -119, -94, 22, -2, -79, 14, 32, 59, -16, 36, -59, 68, -8, -7, -33, -33, -61, 42, -3, -19, -41, -66, -37, -15, -55, 11, -27, -34, -16, -30, -65, 28, -9, -33, 1, -86, -62, -51, 30, -79, -81, -45, -4, 18, -16, -32, 27, 1, -74, 26, -14, 52, -26, -16, 15, -72, -71, -33, 38, -48, -56, -91, 59, -71, -29, 92, -27, -75, -65, 21, -10, -27, -78, -58, -78, -57, 0, 5, 0, -21, 31, -50, -16, 57, 0, -76, -55, 15, 20, -24, 46, -8, -12, -8, 23, -32, -6, 5, 7, -62, -12, 50, 16, -67, -28, 19, -88, 6, -48, -97, -83, -26, 30, -53, -51, -37, -77, -36, -77, -23, -32, 14, 44, -4, 30, -21, 1, 4, -12, -1, 42, -1, -4, -43, -53, -42, 36, 44, 18, -110, -29, 18, -83, -66, -53, -75, -91, 61, 5, 58, -83, 10, 56, 53, -48, 24, -3, 23, 24, 21, -66, -17, -35, 36, 39, -20, -54, -92, -23, -35, -46, -43, -49, -85, -18, 21, -17, 34, 50, -20, -31, 79, 31, 0, 84, 61, -9, 21, -53, 65, 19, -52, 63, 77, -31, 12, 60, 17, -7, 11, 53, 18, -29, -57, -74, -25, -26, -28, -26, -38, 53, 29, 44, -25, 38, -56, -47, -50, 17, 33, 38, 21, -37, 68, 86, -13, 17, -19, -14, 50, -47, 45, -5, 46, 47, -106, -29, -84, 27, 28, 75, 91, -28, -14, -56, 40, -18, 25, -30, -1, -18, 35, 40, -42, 27, 9, 79, 16, 22, 53, -44, -21, 24, 33, -55, -58, 29, 6, 14, 0, 28, -22, 23, -65, 44, 2, -49, 79, 47, -13, 4, 49, -70, 55, 29, 6, 71, 7, -2, -96, -16, -52, -44, 62, 20, 51, 6, -3, 1, 11, 6, -70, 19, -13, -5, -31, 40, -34, -5, 12, 9, -30, -66, -21, -46, -48, 6, -51, -40, 18, 68, 51, 0, 39, 19, 37, 12, 11, 42, -49, -23, 24, -32, -37, 25, -41, 57, -14, 20, -55, -45, -33, -52, 17, 54, -58, -47, -48, 34, -17, -1, 7, 57, -24, -52, 18, -15, 26, 0, 5, -54, 51, -45, 72, 33, 21, -52, -61, -20, 29, -55, 5, -13, -37, -11, 52, -31, 46, -72, -52, -72, 12, -57, -8, 23, -5, 6, 21, -102, 21, 3, -17, 5, -71, -25, -54, -2, -29, 38, -65, 36, -9, -14, 22, -35, -85, 7, 0, 19, -49, -78, -22, -39, -94, -57, 15, -81, -28, 30, 15, 24, 3, -7, 10, -53, 19, -15, 43, -57, -27, -26, 42, 1, 15, 10, 59, 5, 54, -97, -65, 21, 37, -8, -90, 9, -80, -105, -21, -5, 14, -60, -15, -15, -3, -69, -14, -52, -20, 4, 33, -16, -17, -14, -62, -122, 28, -55, 40, 20, 34, 21, 14, -89, -38, -82, 15, -21, -91, -121, 49, 2, 10, -77, -4, -69, -79, -23, -7, -39, -84, -48, 18, 3, -16, -52, -20, -72, 4, -27, 12, -23, -81, 5, -26, -91, -60, -62, 18, 28, -22, -24, -6, 21, -33, 3, -104, 21, -31, -67, -66, -57, -55, -93, 19, -8, -14, -40, -75, -98, 34, -8, 6, -7, -102, -5, 13, -23, -57, 6, 1, -56, -80, 14, 24, 40, -71, -71, -22, -76, 34, -40, -9, -62, -34, 29, -2, 15, 40, -14, -37, -106, -27, -34, 14, -2, -23, -49, 0, -16, 10, -91, 27, 0, 23, -29, -72, 31, 62, -70, -54, 43, -16, -66, 5, -6, -18, -48, 23, -72, -80, 28, -43, -49, -93, 9, 42, -78, -51, 46, 54, -56, -42, 43, -56, 13, -98, 82, -91, -72, 24, 7, -48, -39, -7, -64, 35, -52, 25, 18, 7, -68, 35, 42, 17, 71, 35, -80, -49, 6, -64, -18, -16, -32, 44, -51, -98, -40, -1, 49, 3, 22, -17, 30, -8, -92, -17, -42, -31, -4, -6, -7, -65, -93, -87, 19, -8, -6, 49, 16, 58, -38, -47, 3, 23, 31, 40, 20, 18, -73, -3, -64, -50, -48, -43, -43, 20, 2, -4, 12, -51, -19, 14, -49, -10, -82, 18, -70, -80, -3, -76, -46, -23, 29, -79, -47, -52, -84, 29, -26, -44, 20, 24, -7, 38, 27, 2, -74, -22, -91, -25, 22, -72, 31, -47, -72, -93, -66, 15, -95, 27, -106, -65, -84, -32, -49, -73, -57, -57, -84, -30, -85, -32, -41, 22, -52, -61, 34, 31, -76, -4, 43, -13, -43, -25, -65, -51, -16, 4, -3, -10, -74, -14, -37, -112, 17, -31, -50, -70, -5, 78, -22, -24, -74, -5, -60, -58, 36, -58, 26, -71, 29, -49, 21, -50, 3, 55, -31, -5, 13, 43, -11, -19, -71, -29, -45, -6, -34, 52, 25, 13, -39, 15, 23, -41, -39, -67, -55, 17, -83, -12, -27, 5, 33, 32, -51, 13, -37, -86, -52, 7, -88, -38, 0, 5, -4, -12, -61, -78, -62, 8, 32, -34, 35, -78, -70, 21, 78, 21, 0, 11, -89, -29, 4, 39, 3, -29, -24, 40, -66, -94, -1, -5, -3, -55, -31, -27, 33, -74, 27, -86, -14, -13, 10, 39, 46, 21, -5, 24, 79, -25, 19, 25, -47, 31, -67, 22, -46, -36, -38, -27, -42, 28, 13, -61, -10, -20, -85, -16, -87, -67, 13, -10, -47, -49, -44, -43, 21, -5, 20, 20, -81, -56, -56, 18, -23, 37, 25, -62, -68, -55, 4, 6, -36, -25, -63, -50, -35, 10, 28, -62, 33, -4, -50, -33, -51, -85, -71, -20, 20, -47, 25, -44, 10, 2, 12, -44, -6, 35, -2, -63, 16, 9, -75, 24, -25, -61, -17, 21, -51, -30, -33, -1, -17, 22, -21, -24, -25, -40, -14, -19, 43, 24, -57, 46, 9, 17, 0, 23, 25, -38, 17, -68, -53, -24, 18, -7, 55, 52, -59, -5, 53, 37, -60, 19, 20, -79, -35, -97, 28, -15, -54, 29, 55, 8, -8, -29, -20, -52, -19, 3, -33, -53, -22, -38, 25, 77, 52, -64, 16, 12, 19, -70, -26, -11, 42, 9, 47, 2, -53, -3, 7, 39, -25, -57, 26, -44, -40, 33, 6, -9, -57, -42, -47, -26, -32, -28, -9, 43, -53, -44, -6, 49, 28, -52, 26, 37, -42, -67, -25, -22, -15, -27, 36, -29, -57, -9, -60, -34, -3, -21, -37, 29, -23, -59, -45, -35, -37, -5, 19, -45, 28, 33, -41, 6, -74, -60, -3, -57, 24, -70, -65, -57, -62, 26, 11, 9, 7, -41, -73, -68, 19, -42, -63, 4, -1, 61, -40, -52, 25, 87, -33, 7, -14, -23, 2, 29, 32, 16, 30, -24, 17, 26, 51, -39, -64, 11, -67, -64, -31, 44, -51, 14, 0, 57, -44, -55, -45, -46, 45, -36, 42, -35, -47, 10, -62, 58, -31, -1, -23, 35, -60, -44, -31, -17, 6, 30, 25, 46, -25, -92, 7, -23, -35, -41, -65, 7, -6, -52, 50, 19, -34, -73, 2, 10, -26, -74, 10, -9, -59, 3, -56, -20, -57, -27, 20, 1, 11, 48, -41, 37, 21, 24, -52, -16, -26, 23, -43, 37, -50, -17, 30, -48, -28, -24, 39, -29, -2, 34, 36, -49, 49, -11, 40, 50, -21, -17, -48, -60, 25, -1, -36, -39, -21, -15, 33, 
